{"learner":{"attributes":{"best_iteration":"99","best_ntree_limit":"100","scikit_learn":"{\"n_estimators\": 100, \"objective\": \"reg:squarederror\", \"max_depth\": 5, \"max_leaves\": null, \"max_bin\": null, \"grow_policy\": null, \"learning_rate\": null, \"verbosity\": null, \"booster\": null, \"tree_method\": null, \"gamma\": null, \"min_child_weight\": null, \"max_delta_step\": null, \"subsample\": null, \"sampling_method\": null, \"colsample_bytree\": null, \"colsample_bylevel\": null, \"colsample_bynode\": null, \"reg_alpha\": 15980.680753821336, \"reg_lambda\": null, \"scale_pos_weight\": null, \"base_score\": null, \"missing\": NaN, \"num_parallel_tree\": null, \"random_state\": null, \"n_jobs\": null, \"monotone_constraints\": null, \"interaction_constraints\": null, \"importance_type\": null, \"gpu_id\": null, \"validate_parameters\": null, \"predictor\": null, \"enable_categorical\": false, \"max_cat_to_onehot\": null, \"eval_metric\": null, \"early_stopping_rounds\": null, \"callbacks\": null, \"_estimator_type\": \"regressor\"}"},"feature_names":["open_pile_card","own_cards_0","own_cards_1","own_cards_2","own_cards_3","own_cards_4","own_cards_5","own_cards_6","own_cards_7","own_cards_8","own_cards_9","own_cards_10","own_cards_11","other_player_cards_0","other_player_cards_1","other_player_cards_2","other_player_cards_3","other_player_cards_4","other_player_cards_5","other_player_cards_6","other_player_cards_7","other_player_cards_8","other_player_cards_9","other_player_cards_10","other_player_cards_11","action_take_open","action_discard","discard_value","id_player_card","numeric_player_card"],"feature_types":["int","int","int","int","int","int","int","int","int","int","int","int","int","int","int","int","int","int","int","int","int","int","int","int","int","int","int","int","int","int"],"gradient_booster":{"model":{"gbtree_model_param":{"num_parallel_tree":"1","num_trees":"100","size_leaf_vector":"0"},"tree_info":[0,0,0,0,0,0,0,0,0,0,0,0,0,0,0,0,0,0,0,0,0,0,0,0,0,0,0,0,0,0,0,0,0,0,0,0,0,0,0,0,0,0,0,0,0,0,0,0,0,0,0,0,0,0,0,0,0,0,0,0,0,0,0,0,0,0,0,0,0,0,0,0,0,0,0,0,0,0,0,0,0,0,0,0,0,0,0,0,0,0,0,0,0,0,0,0,0,0,0,0],"trees":[{"base_weights":[-4.648362E-1,6.4368896E0,-7.425882E0,5.630731E-1,3.0783731E1,-1.4239373E0,-1.7980833E1,-3.6542206E0,2.6275797E0,3.491621E1,-1.0420519E0,-4.3567877E0,4.4060126E-1,-2.6139013E1,-3.0483338E-1,6.428619E-2,-5.896792E0,7.015905E0,6.3821554E-1,-0E0,3.585673E1,-3.2704852E0,-0E0,-0E0,-6.241469E0,3.5538015E0,-1.223255E0,-3.1960266E0,-3.481935E1,-1.1558805E1,4.4194224E-1,-3.4832764E0,2.0246909E0,-9.156015E0,-3.4752984E0,2.3680067E0,9.228977E0,-1.8623956E0,3.2067978E0,-0E0,3.6125618E1,-0E0,-4.5862875E0,-0E0,8.545823E-1,2.6872756E0,-1.6933913E0,-5.529727E-1,-7.3495126E0,3.6636095E-2,4.7099385E0,-4.4862614E0,1.0134228E-1,1.1015594E-1,-5.1344914E0,-3.7111057E1,-0E0,-1.3006107E1,-0E0,1.0354438E1,-2.6399502E-1],"categories":[],"categories_nodes":[],"categories_segments":[],"categories_sizes":[],"default_left":[1,1,1,1,1,1,1,1,1,1,1,1,1,1,1,1,1,1,1,0,1,1,1,1,1,1,1,1,1,1,1,0,0,0,0,0,0,0,0,0,0,0,0,0,0,0,0,0,0,0,0,0,0,0,0,0,0,0,0,0,0],"id":0,"left_children":[1,3,5,7,9,11,13,15,17,19,21,23,25,27,29,31,33,35,37,-1,39,41,43,45,47,49,51,53,55,57,59,-1,-1,-1,-1,-1,-1,-1,-1,-1,-1,-1,-1,-1,-1,-1,-1,-1,-1,-1,-1,-1,-1,-1,-1,-1,-1,-1,-1,-1,-1],"loss_changes":[7.2090936E7,1.07065176E8,4.7079012E7,5.2641745E6,1.9699136E7,2.6756388E6,3.8542184E7,1.7341765E6,3.4545148E6,4.559984E6,8.963864E4,1.622449E6,1.5331929E6,3.6088096E7,8.999836E5,4.7291272E5,7.88052E5,1.1034625E6,1.8483531E6,0E0,1.398912E6,5.6919664E4,2.9037163E3,2.627583E5,7.16837E5,3.4677575E5,8.69088E5,4.0768606E5,1.1190128E7,8.575756E4,7.159477E5,0E0,0E0,0E0,0E0,0E0,0E0,0E0,0E0,0E0,0E0,0E0,0E0,0E0,0E0,0E0,0E0,0E0,0E0,0E0,0E0,0E0,0E0,0E0,0E0,0E0,0E0,0E0,0E0,0E0,0E0],"parents":[2147483647,0,0,1,1,2,2,3,3,4,4,5,5,6,6,7,7,8,8,9,9,10,10,11,11,12,12,13,13,14,14,15,15,16,16,17,17,18,18,20,20,21,21,22,22,23,23,24,24,25,25,26,26,27,27,28,28,29,29,30,30],"right_children":[2,4,6,8,10,12,14,16,18,20,22,24,26,28,30,32,34,36,38,-1,40,42,44,46,48,50,52,54,56,58,60,-1,-1,-1,-1,-1,-1,-1,-1,-1,-1,-1,-1,-1,-1,-1,-1,-1,-1,-1,-1,-1,-1,-1,-1,-1,-1,-1,-1,-1,-1],"split_conditions":[1.6E1,9.5E0,9.5E0,1.5E0,3.5E0,1.15E1,1.6E1,1.5E0,1.5E0,9.5E0,7.5E0,1.5E0,1.6E1,9.5E0,-1.5E0,5E-1,1.5E0,1.5E0,6.5E0,-0E0,9.5E0,5E-1,1.6E1,2.5E0,5E-1,2.5E0,6.5E0,2.5E0,1.6E1,1.6E1,-1.5E0,-1.0449829E0,6.074073E-1,-2.7468047E0,-1.0425895E0,7.10402E-1,2.7686932E0,-5.5871874E-1,9.620394E-1,-0E0,1.0837686E1,-0E0,-1.3758863E0,-0E0,2.5637472E-1,8.0618274E-1,-5.080174E-1,-1.6589181E-1,-2.2048538E0,1.0990829E-2,1.4129816E0,-1.3458785E0,3.0402686E-2,3.3046782E-2,-1.5403475E0,-1.1133318E1,-0E0,-3.9018323E0,-0E0,3.1063316E0,-7.919851E-2],"split_indices":[14,14,0,11,28,11,2,23,23,0,11,23,23,2,7,1,5,1,12,0,3,24,8,13,22,1,12,23,15,11,19,0,0,0,0,0,0,0,0,0,0,0,0,0,0,0,0,0,0,0,0,0,0,0,0,0,0,0,0,0,0],"split_type":[0,0,0,0,0,0,0,0,0,0,0,0,0,0,0,0,0,0,0,0,0,0,0,0,0,0,0,0,0,0,0,0,0,0,0,0,0,0,0,0,0,0,0,0,0,0,0,0,0,0,0,0,0,0,0,0,0,0,0,0,0],"sum_hessian":[1.500212E6,7.52163E5,7.48049E5,6.06499E5,1.45664E5,4.77844E5,2.70205E5,1.96781E5,4.09718E5,1.29368E5,1.6296E4,1.89048E5,2.88796E5,1.84258E5,8.5947E4,7.1349E4,1.25432E5,1.25295E5,2.84423E5,3.151E3,1.26217E5,1.0034E4,6.262E3,5.5285E4,1.33763E5,1.03933E5,1.84863E5,5.1083E4,1.33175E5,6.679E3,7.9268E4,2.2493E4,4.8856E4,5.0653E4,7.4779E4,4.2745E4,8.255E4,1.40966E5,1.43457E5,8E2,1.25417E5,2.226E3,7.808E3,2.287E3,3.975E3,2.3936E4,3.1349E4,2.4159E4,1.09604E5,2.9132E4,7.4801E4,5.6859E4,1.28004E5,1.5834E4,3.5249E4,1.2536E5,7.815E3,5.782E3,8.97E2,6.774E3,7.2494E4],"tree_param":{"num_deleted":"0","num_feature":"30","num_nodes":"61","size_leaf_vector":"0"}},{"base_weights":[-3.2560828E-1,-5.4535923E0,4.601737E0,-1.2924286E0,-2.213645E1,5.23855E-1,1.1659166E1,2.517568E0,-3.3209052E0,-2.4760578E1,1.1442149E0,3.9662266E0,-9.476204E-1,-1.0524108E-1,1.797288E1,5.898035E0,2.3383714E-2,-6.990019E0,-1.6087165E0,-0E0,-2.6215881E1,3.653901E0,-0E0,-5.678371E-1,5.2017646E0,-5.130711E0,4.1691706E-2,2.144993E0,-2.0043437E0,-3.3770677E-1,2.196978E1,-0E0,7.0180583E0,4.057656E0,-1.3235738E0,-2.0969033E0,-8.744972E0,1.0653702E0,-3.3646815E0,-4.1094277E-2,-0E0,-2.623353E1,-0E0,-0E0,4.083904E0,-0E0,-9.421679E-1,-3.1874156E0,1.0798349E-1,1.7650065E0,6.790128E0,-0E0,-5.7255225E0,3.555657E0,-8.804742E-1,-2.952171E-1,3.6006052E0,-0E0,-2.9510145E0,8.755652E0,-2.8405316E0,2.4164742E1,3.237361E0],"categories":[],"categories_nodes":[],"categories_segments":[],"categories_sizes":[],"default_left":[1,1,1,1,1,1,1,1,1,1,1,1,1,1,1,1,1,1,1,1,1,1,1,1,1,1,1,1,1,1,1,0,0,0,0,0,0,0,0,0,0,0,0,0,0,0,0,0,0,0,0,0,0,0,0,0,0,0,0,0,0,0,0],"id":1,"left_children":[1,3,5,7,9,11,13,15,17,19,21,23,25,27,29,31,33,35,37,39,41,43,45,47,49,51,53,55,57,59,61,-1,-1,-1,-1,-1,-1,-1,-1,-1,-1,-1,-1,-1,-1,-1,-1,-1,-1,-1,-1,-1,-1,-1,-1,-1,-1,-1,-1,-1,-1,-1,-1],"loss_changes":[3.7920044E7,5.076937E7,2.1777914E7,4.5759085E6,9.315664E6,2.5065865E6,2.0946604E7,1.6118668E6,2.3002445E6,4.588096E6,8.750276E4,9.0643025E5,1.4748851E6,4.0913366E5,1.3658084E7,5.1582425E5,6.913538E5,8.613915E5,1.2930002E6,6.9407196E0,5.8824E4,2.1104844E4,3.9830215E3,1.0064087E5,5.15797E5,2.28381E5,9.152285E5,1.956422E5,1.3032092E5,6.309658E5,5.730544E6,0E0,0E0,0E0,0E0,0E0,0E0,0E0,0E0,0E0,0E0,0E0,0E0,0E0,0E0,0E0,0E0,0E0,0E0,0E0,0E0,0E0,0E0,0E0,0E0,0E0,0E0,0E0,0E0,0E0,0E0,0E0,0E0],"parents":[2147483647,0,0,1,1,2,2,3,3,4,4,5,5,6,6,7,7,8,8,9,9,10,10,11,11,12,12,13,13,14,14,15,15,16,16,17,17,18,18,19,19,20,20,21,21,22,22,23,23,24,24,25,25,26,26,27,27,28,28,29,29,30,30],"right_children":[2,4,6,8,10,12,14,16,18,20,22,24,26,28,30,32,34,36,38,40,42,44,46,48,50,52,54,56,58,60,62,-1,-1,-1,-1,-1,-1,-1,-1,-1,-1,-1,-1,-1,-1,-1,-1,-1,-1,-1,-1,-1,-1,-1,-1,-1,-1,-1,-1,-1,-1,-1,-1],"split_conditions":[1.6E1,9.5E0,9.5E0,1.5E0,1.6E1,2.5E0,5E-1,1.5E0,1.5E0,9.5E0,1.6E1,5E-1,1.5E0,1.15E1,1.6E1,-5E-1,5E-1,5E-1,2.5E0,4.5E0,1.6E1,-5E-1,1.6E1,1.5E0,2.5E0,-5E-1,2.5E0,1.5E0,3.5E0,-1.5E0,3.5E0,-0E0,2.1054175E0,1.2172968E0,-3.9707217E-1,-6.29071E-1,-2.6234918E0,3.1961107E-1,-1.0094045E0,-1.2328284E-2,-0E0,-7.8700595E0,-0E0,-0E0,1.2251712E0,-0E0,-2.8265038E-1,-9.5622474E-1,3.239505E-2,5.29502E-1,2.0370386E0,-0E0,-1.7176569E0,1.0666971E0,-2.6414227E-1,-8.856513E-2,1.0801816E0,-0E0,-8.853044E-1,2.6266959E0,-8.521595E-1,7.2494226E0,9.7120833E-1],"split_indices":[2,2,0,13,4,13,25,17,10,4,23,10,10,23,11,5,22,18,24,11,15,12,24,5,1,22,22,11,24,19,28,0,0,0,0,0,0,0,0,0,0,0,0,0,0,0,0,0,0,0,0,0,0,0,0,0,0,0,0,0,0,0,0],"split_type":[0,0,0,0,0,0,0,0,0,0,0,0,0,0,0,0,0,0,0,0,0,0,0,0,0,0,0,0,0,0,0,0,0,0,0,0,0,0,0,0,0,0,0,0,0,0,0,0,0,0,0,0,0,0,0,0,0,0,0,0,0,0,0],"sum_hessian":[1.500212E6,7.36728E5,7.63484E5,5.9042E5,1.46308E5,4.85323E5,2.78161E5,2.02394E5,3.88026E5,1.32104E5,1.4204E4,1.48584E5,3.36739E5,9.6263E4,1.81898E5,8.3209E4,1.19185E5,1.20489E5,2.67537E5,7.584E3,1.2452E5,7.946E3,6.258E3,2.9049E4,1.19535E5,6.7496E4,2.69243E5,4.0207E4,5.6056E4,3.1875E4,1.50023E5,1.3967E4,6.9242E4,3.2802E4,8.6383E4,3.4211E4,8.6278E4,1.02438E5,1.65099E5,4.109E3,3.475E3,1.24438E5,8.2E1,3.2E2,7.626E3,1.772E3,4.486E3,1.0806E4,1.8243E4,4.0964E4,7.8571E4,6.329E3,6.1167E4,5.9571E4,2.09672E5,1.0921E4,2.9286E4,1.5232E4,4.0824E4,5.501E3,2.6374E4,1.33524E5,1.6499E4],"tree_param":{"num_deleted":"0","num_feature":"30","num_nodes":"63","size_leaf_vector":"0"}},{"base_weights":[-2.2156599E-1,3.3405745E0,-3.8246598E0,4.2847687E-1,1.5355837E1,-8.42953E-1,-9.038493E0,-2.3248212E0,2.3010404E0,-2.5682747E0,1.7162521E1,-3.8656454E0,3.8595483E-1,5.2743757E-1,-1.2448883E1,5.8833635E-1,-4.0433645E0,5.853252E0,6.4932746E-1,-0E0,-3.7275827E0,1.7889444E1,-0E0,-0E0,-5.379832E0,3.845763E0,-4.622114E-1,-3.2948108E0,2.4578753E0,-2.3186507E0,-1.5981272E1,3.411575E0,-1.3580325E0,-0E0,-5.5497813E0,1.1868277E0,7.4129734E0,2.6821718E0,-1.2149237E0,-0E0,-4.0057206E0,-0E0,1.8260296E1,-3.1504028E0,9.2081857E-1,-0E0,-5.999256E0,-0E0,4.4201627E0,-2.5360985E0,6.136647E-1,-6.813959E0,-0E0,-0E0,3.5036113E0,-5.6818957E0,-1.5177195E-1,-1.7374031E1,-1.538057E0],"categories":[],"categories_nodes":[],"categories_segments":[],"categories_sizes":[],"default_left":[1,1,1,1,1,1,1,1,1,1,1,1,1,1,1,1,1,1,1,0,1,1,0,1,1,1,1,1,1,1,1,0,0,0,0,0,0,0,0,0,0,0,0,0,0,0,0,0,0,0,0,0,0,0,0,0,0,0,0],"id":2,"left_children":[1,3,5,7,9,11,13,15,17,19,21,23,25,27,29,31,33,35,37,-1,39,41,-1,43,45,47,49,51,53,55,57,-1,-1,-1,-1,-1,-1,-1,-1,-1,-1,-1,-1,-1,-1,-1,-1,-1,-1,-1,-1,-1,-1,-1,-1,-1,-1,-1,-1],"loss_changes":[1.9262572E7,2.6065676E7,1.1471356E7,3.1265732E6,4.950368E6,1.8306175E6,9.0056E6,1.2670572E6,2.0343468E6,5.1944008E4,1.625448E6,7.4693975E5,1.0399688E6,5.0154238E5,6.87944E6,5.073973E5,8.9662E5,6.821145E5,9.77861E5,0E0,1.39823125E4,7.6388E5,0E0,1.5883048E5,3.2423925E5,2.2280775E5,6.2448675E5,2.2041152E5,1.8118119E5,2.9294347E5,2.663532E6,0E0,0E0,0E0,0E0,0E0,0E0,0E0,0E0,0E0,0E0,0E0,0E0,0E0,0E0,0E0,0E0,0E0,0E0,0E0,0E0,0E0,0E0,0E0,0E0,0E0,0E0,0E0,0E0],"parents":[2147483647,0,0,1,1,2,2,3,3,4,4,5,5,6,6,7,7,8,8,9,9,10,10,11,11,12,12,13,13,14,14,15,15,16,16,17,17,18,18,20,20,21,21,23,23,24,24,25,25,26,26,27,27,28,28,29,29,30,30],"right_children":[2,4,6,8,10,12,14,16,18,20,22,24,26,28,30,32,34,36,38,-1,40,42,-1,44,46,48,50,52,54,56,58,-1,-1,-1,-1,-1,-1,-1,-1,-1,-1,-1,-1,-1,-1,-1,-1,-1,-1,-1,-1,-1,-1,-1,-1,-1,-1,-1,-1],"split_conditions":[1.6E1,9.5E0,9.5E0,2.5E0,1.6E1,2.5E0,1.6E1,1.5E0,1.5E0,5E-1,1.6E1,1.5E0,1.5E0,1.5E0,5E-1,1.5E0,5E-1,5E-1,6.5E0,-0E0,-5E-1,6.5E0,-0E0,1.5E0,-5E-1,-5E-1,1.6E1,5E-1,2.5E0,1.6E1,1.6E1,1.0234725E0,-4.0740976E-1,-0E0,-1.6649345E0,3.5604832E-1,2.2238922E0,8.0465156E-1,-3.6447713E-1,-0E0,-1.2017162E0,-0E0,5.478089E0,-9.451209E-1,2.762456E-1,-0E0,-1.7997769E0,-0E0,1.3260489E0,-7.6082957E-1,1.840994E-1,-2.0441878E0,-0E0,-0E0,1.0510834E0,-1.7045687E0,-4.5531586E-2,-5.2122097E0,-4.614171E-1],"split_indices":[14,14,0,1,8,1,23,23,22,24,16,17,22,4,25,17,18,6,24,0,22,16,0,11,24,11,12,6,11,11,2,0,0,0,0,0,0,0,0,0,0,0,0,0,0,0,0,0,0,0,0,0,0,0,0,0,0,0,0],"split_type":[0,0,0,0,0,0,0,0,0,0,0,0,0,0,0,0,0,0,0,0,0,0,0,0,0,0,0,0,0,0,0,0,0,0,0,0,0,0,0,0,0,0,0,0,0,0,0,0,0,0,0,0,0,0,0,0,0,0,0],"sum_hessian":[1.500212E6,7.52163E5,7.48049E5,6.06499E5,1.45664E5,4.77844E5,2.70205E5,2.42058E5,3.64441E5,1.2528E4,1.33136E5,1.41877E5,3.35967E5,6.9783E4,2.00422E5,8.6363E4,1.55695E5,1.12601E5,2.5184E5,2.843E3,9.685E3,1.27615E5,5.521E3,4.2818E4,9.9059E4,6.9855E4,2.66112E5,2.0639E4,4.9144E4,5.2988E4,1.47434E5,3.8593E4,4.777E4,4.3941E4,1.11754E5,3.0775E4,8.1826E4,1.24573E5,1.27267E5,4.27E2,9.258E3,2.84E3,1.24775E5,1.3497E4,2.9321E4,1.0391E4,8.8668E4,5.572E3,6.4283E4,9.597E4,1.70142E5,9.572E3,1.1067E4,1.0199E4,3.8945E4,1.7872E4,3.5116E4,1.33458E5,1.3976E4],"tree_param":{"num_deleted":"0","num_feature":"30","num_nodes":"59","size_leaf_vector":"0"}},{"base_weights":[-1.6804859E-1,-2.86884E0,2.4171636E0,-8.170767E-1,-1.103936E1,-1.2467494E0,4.4371824E0,4.3637366E0,-1.654929E0,1.8416103E0,-1.2380276E1,1.1681385E0,-2.4960573E0,7.5232773E0,7.19559E-1,6.927725E-1,6.078693E0,-4.3593354E0,-0E0,-0E0,2.6680975E0,-1.2914099E1,-0E0,-2.1790078E0,2.7388852E0,2.4377615E0,-3.0681322E0,2.8697994E0,1.2335268E1,4.250176E0,-0E0,2.9170444E0,-0E0,1.2158881E0,7.471123E0,-1.2209361E0,-6.0066304E0,1.8386132E0,-2.1336794E0,-0E0,2.9959114E0,-0E0,-1.314431E1,-0E0,-4.5634847E0,-0E0,4.295672E0,-0E0,3.389449E0,-4.1884133E-1,-4.192884E0,5.692625E0,4.5669258E-1,1.2689139E1,-0E0,-0E0,4.8911347E0,1.8743107E0,-9.207565E-1],"categories":[],"categories_nodes":[],"categories_segments":[],"categories_sizes":[],"default_left":[1,1,1,1,1,1,1,1,1,1,1,1,1,1,1,1,1,1,1,0,1,1,0,1,1,1,1,1,1,1,1,0,0,0,0,0,0,0,0,0,0,0,0,0,0,0,0,0,0,0,0,0,0,0,0,0,0,0,0],"id":3,"left_children":[1,3,5,7,9,11,13,15,17,19,21,23,25,27,29,31,33,35,37,-1,39,41,-1,43,45,47,49,51,53,55,57,-1,-1,-1,-1,-1,-1,-1,-1,-1,-1,-1,-1,-1,-1,-1,-1,-1,-1,-1,-1,-1,-1,-1,-1,-1,-1,-1,-1],"loss_changes":[1.0481891E7,1.2161024E7,5.701676E6,2.5195925E6,2.69553E6,8.313474E5,5.546925E6,3.9251175E5,2.244374E6,2.7313031E4,7.8582E5,4.67372E5,5.2189612E5,5.760473E6,6.418965E5,8.093186E4,2.0814562E5,8.7570525E5,1.2549128E6,0E0,1.4698391E4,2.9476E5,0E0,1.3145684E5,3.3477225E5,4.948153E4,4.1914288E5,8.416571E5,4.72446E5,8.958244E4,3.0425656E5,0E0,0E0,0E0,0E0,0E0,0E0,0E0,0E0,0E0,0E0,0E0,0E0,0E0,0E0,0E0,0E0,0E0,0E0,0E0,0E0,0E0,0E0,0E0,0E0,0E0,0E0,0E0,0E0],"parents":[2147483647,0,0,1,1,2,2,3,3,4,4,5,5,6,6,7,7,8,8,9,9,10,10,11,11,12,12,13,13,14,14,15,15,16,16,17,17,18,18,20,20,21,21,23,23,24,24,25,25,26,26,27,27,28,28,29,29,30,30],"right_children":[2,4,6,8,10,12,14,16,18,20,22,24,26,28,30,32,34,36,38,-1,40,42,-1,44,46,48,50,52,54,56,58,-1,-1,-1,-1,-1,-1,-1,-1,-1,-1,-1,-1,-1,-1,-1,-1,-1,-1,-1,-1,-1,-1,-1,-1,-1,-1,-1,-1],"split_conditions":[1.6E1,9.5E0,1.05E1,-5E-1,1.6E1,1.5E0,1.6E1,1.5E0,2.5E0,5E-1,1.6E1,5E-1,-5E-1,9.5E0,1.5E0,5E-1,5E-1,1.5E0,6.5E0,-0E0,-5E-1,6.5E0,-0E0,2.5E0,1.5E0,5E-1,2.5E0,6.5E0,1.6E1,5E-1,1.15E1,8.7511337E-1,-0E0,3.6476645E-1,2.241337E0,-3.6628082E-1,-1.8019892E0,5.5158395E-1,-6.401038E-1,-0E0,8.9877343E-1,-0E0,-3.943293E0,-0E0,-1.3690455E0,-0E0,1.2887017E0,-0E0,1.0168347E0,-1.256524E-1,-1.2578652E0,1.7077876E0,1.3700777E-1,3.806742E0,-0E0,-0E0,1.4673405E0,5.6229323E-1,-2.7622697E-1],"split_indices":[2,2,11,17,20,16,14,11,11,12,4,12,23,14,24,16,6,13,24,0,10,4,0,21,10,1,24,24,16,3,23,0,0,0,0,0,0,0,0,0,0,0,0,0,0,0,0,0,0,0,0,0,0,0,0,0,0,0,0],"split_type":[0,0,0,0,0,0,0,0,0,0,0,0,0,0,0,0,0,0,0,0,0,0,0,0,0,0,0,0,0,0,0,0,0,0,0,0,0,0,0,0,0,0,0,0,0,0,0,0,0,0,0,0,0,0,0,0,0,0,0],"sum_hessian":[1.500212E6,7.36728E5,7.63484E5,5.9042E5,1.46308E5,2.68524E5,4.9496E5,7.9536E4,5.10884E5,1.2671E4,1.33637E5,8.7192E4,1.81332E5,2.68102E5,2.26858E5,2.8293E4,5.1243E4,1.91728E5,3.19156E5,2.798E3,9.873E3,1.27529E5,6.108E3,2.4599E4,6.2593E4,1.5938E4,1.65394E5,1.37985E5,1.30117E5,4.2036E4,1.84822E5,1.1106E4,1.7187E4,1.3962E4,3.7281E4,6.9335E4,1.22393E5,1.68998E5,1.50158E5,4.05E2,9.468E3,2.722E3,1.24807E5,1.2679E4,1.192E4,1.9006E4,4.3587E4,3.387E3,1.2551E4,5.3526E4,1.11868E5,6.0541E4,7.7444E4,1.25895E5,4.222E3,6.551E3,3.5485E4,5.5365E4,1.29457E5],"tree_param":{"num_deleted":"0","num_feature":"30","num_nodes":"59","size_leaf_vector":"0"}},{"base_weights":[-1.092225E-1,-2.0081208E0,1.7021986E0,-5.622146E-1,-7.733747E0,-1.1582131E0,3.2312422E0,-5.2856526E0,1.9102445E-1,1.1700836E0,-8.697562E0,1.17621E0,-2.67513E0,5.434414E0,6.11982E-1,-0E0,-6.182175E0,2.9452758E0,-1.2363297E0,-0E0,1.8076462E0,-0E0,-8.978585E0,-2.4782374E0,2.305165E0,-5.4763675E0,-1.2874652E0,2.4872913E0,8.251636E0,2.335985E0,-1.739304E-1,9.071569E-2,-1.8880787E-1,-2.6097686E0,-7.6254234E0,6.1920047E0,1.3791015E0,-4.1370726E0,-0E0,-0E0,2.11616E0,-0E0,-9.127631E0,-0E0,-4.0631385E0,-2.2486982E-1,3.5307877E0,-0E0,-6.1737986E0,5.2153075E-1,-2.9315205E0,5.9204564E0,1.1463218E0,-3.845334E-1,8.80247E0,-0E0,3.0092657E0,-2.1757202E0,4.5552307E-1],"categories":[],"categories_nodes":[],"categories_segments":[],"categories_sizes":[],"default_left":[1,1,1,1,1,1,1,1,1,1,1,1,1,1,1,1,1,1,1,0,1,0,1,1,1,1,1,1,1,1,1,0,0,0,0,0,0,0,0,0,0,0,0,0,0,0,0,0,0,0,0,0,0,0,0,0,0,0,0],"id":4,"left_children":[1,3,5,7,9,11,13,15,17,19,21,23,25,27,29,31,33,35,37,-1,39,-1,41,43,45,47,49,51,53,55,57,-1,-1,-1,-1,-1,-1,-1,-1,-1,-1,-1,-1,-1,-1,-1,-1,-1,-1,-1,-1,-1,-1,-1,-1,-1,-1,-1,-1],"loss_changes":[5.165181E6,5.966591E6,3.372382E6,2.1820625E6,1.375876E6,9.528509E5,2.7954625E6,3.931315E5,2.017727E6,1.6029199E4,3.85553E5,4.0638212E5,5.260876E5,2.0608925E6,3.4926988E5,2.9867947E2,2.06498E5,7.772195E5,1.2082158E6,0E0,9.566918E3,0E0,1.54707E5,9.006509E4,2.9812578E5,1.7879362E5,3.74343E5,5.0484125E5,7.75324E5,1.2905297E5,2.2050411E5,0E0,0E0,0E0,0E0,0E0,0E0,0E0,0E0,0E0,0E0,0E0,0E0,0E0,0E0,0E0,0E0,0E0,0E0,0E0,0E0,0E0,0E0,0E0,0E0,0E0,0E0,0E0,0E0],"parents":[2147483647,0,0,1,1,2,2,3,3,4,4,5,5,6,6,7,7,8,8,9,9,10,10,11,11,12,12,13,13,14,14,15,15,16,16,17,17,18,18,20,20,22,22,23,23,24,24,25,25,26,26,27,27,28,28,29,29,30,30],"right_children":[2,4,6,8,10,12,14,16,18,20,22,24,26,28,30,32,34,36,38,-1,40,-1,42,44,46,48,50,52,54,56,58,-1,-1,-1,-1,-1,-1,-1,-1,-1,-1,-1,-1,-1,-1,-1,-1,-1,-1,-1,-1,-1,-1,-1,-1,-1,-1,-1,-1],"split_conditions":[1.6E1,9.5E0,9.5E0,-5E-1,1.6E1,3.5E0,1.6E1,-5E-1,1.5E0,5E-1,1.6E1,-5E-1,1.5E0,9.5E0,1.6E1,1.5E0,5E-1,5E-1,1.5E0,-0E0,-5E-1,-0E0,7.5E0,1.5E0,5E-1,-5E-1,1.6E1,1.5E0,1.6E1,2.5E0,7.5E0,2.7214708E-2,-5.6642365E-2,-7.829306E-1,-2.2876272E0,1.8576015E0,4.1373047E-1,-1.2411218E0,-0E0,-0E0,6.34848E-1,-0E0,-2.7382894E0,-0E0,-1.2189416E0,-6.746095E-2,1.0592364E0,-0E0,-1.8521396E0,1.5645923E-1,-8.7945616E-1,1.776137E0,3.4389654E-1,-1.1536003E-1,2.640741E0,-0E0,9.0277976E-1,-6.527161E-1,1.3665693E-1],"split_indices":[2,2,5,12,20,23,14,24,15,10,24,5,4,14,23,22,16,22,1,0,12,0,0,13,3,24,24,13,11,1,10,0,0,0,0,0,0,0,0,0,0,0,0,0,0,0,0,0,0,0,0,0,0,0,0,0,0,0,0],"split_type":[0,0,0,0,0,0,0,0,0,0,0,0,0,0,0,0,0,0,0,0,0,0,0,0,0,0,0,0,0,0,0,0,0,0,0,0,0,0,0,0,0,0,0,0,0,0,0,0,0,0,0,0,0,0,0,0,0,0,0],"sum_hessian":[1.500212E6,7.36728E5,7.63484E5,5.9042E5,1.46308E5,2.62315E5,5.01169E5,8.4121E4,5.06299E5,1.2671E4,1.33637E5,9.9168E4,1.63147E5,2.68891E5,2.32278E5,1.2343E4,7.1778E4,1.76642E5,3.29657E5,2.457E3,1.0214E4,3.452E3,1.30185E5,2.0064E4,7.9104E4,5.023E4,1.12917E5,1.34189E5,1.34702E5,7.9098E4,1.5318E5,5.156E3,7.187E3,2.3841E4,4.7937E4,5.416E4,1.22482E5,1.00032E5,2.29625E5,6.25E2,9.589E3,2.36E3,1.27825E5,7.145E3,1.2919E4,2.156E4,5.7544E4,6.017E3,4.4213E4,4.9134E4,6.3783E4,3.4343E4,9.9846E4,6.337E3,1.28365E5,1.7184E4,6.1914E4,4.2717E4,1.10463E5],"tree_param":{"num_deleted":"0","num_feature":"30","num_nodes":"59","size_leaf_vector":"0"}},{"base_weights":[-7.239249E-2,-3.2150514E0,5.520569E-1,-6.3801174E0,-1.9901165E0,2.3713849E0,-1.1110005E0,-0E0,-7.3441825E0,4.080596E-1,-3.8608367E0,-1.3362728E0,3.6237853E0,8.791047E-1,-2.9123502E0,-0E0,-1.881037E-1,-0E0,-8.18002E0,3.3001904E0,-7.1687174E-1,-2.7765444E-1,-4.74088E0,8.004537E-1,-2.8283582E0,4.897471E0,9.0197676E-1,3.1101477E0,-0E0,8.075468E-1,-4.2401495E0,-0E0,-7.4768394E-1,-9.111414E-1,-0E0,-0E0,-8.634534E0,5.0513506E0,-0E0,-3.2676752E0,-0E0,6.561063E-1,-2.2305331E0,-0E0,-5.21294E0,4.2496166E0,-2.6598367E-1,-5.8178425E0,-1.3291975E0,1.5196778E0,5.9656487E0,4.8735275E0,-0E0,-0E0,3.6048508E0,-2.1221747E0,1.190387E0,4.466291E0,-8.990805E-2,-5.499576E0,-1.3794631E0],"categories":[],"categories_nodes":[],"categories_segments":[],"categories_sizes":[],"default_left":[1,1,1,1,1,1,1,1,1,1,1,1,1,1,1,0,1,1,1,1,1,1,1,1,1,1,1,1,1,1,1,0,0,0,0,0,0,0,0,0,0,0,0,0,0,0,0,0,0,0,0,0,0,0,0,0,0,0,0,0,0],"id":5,"left_children":[1,3,5,7,9,11,13,15,17,19,21,23,25,27,29,-1,31,33,35,37,39,41,43,45,47,49,51,53,55,57,59,-1,-1,-1,-1,-1,-1,-1,-1,-1,-1,-1,-1,-1,-1,-1,-1,-1,-1,-1,-1,-1,-1,-1,-1,-1,-1,-1,-1,-1,-1],"loss_changes":[2.9866232E6,8.468075E5,3.7940065E6,3.2544925E5,8.8959825E5,2.8238E6,2.3520635E6,3.1632407E2,2.5444225E5,2.9428347E5,2.6108675E5,5.0534397E5,1.4739655E6,6.052194E5,1.7531942E6,0E0,3.961383E3,2.6366475E3,1.95872E5,1.8820172E5,1.4142477E5,7.060767E4,1.6726088E5,2.7182188E5,2.9697525E5,9.766865E5,5.2225262E5,1.6283769E5,5.4985875E5,3.5653672E5,8.14405E5,0E0,0E0,0E0,0E0,0E0,0E0,0E0,0E0,0E0,0E0,0E0,0E0,0E0,0E0,0E0,0E0,0E0,0E0,0E0,0E0,0E0,0E0,0E0,0E0,0E0,0E0,0E0,0E0,0E0,0E0],"parents":[2147483647,0,0,1,1,2,2,3,3,4,4,5,5,6,6,7,7,8,8,9,9,10,10,11,11,12,12,13,13,14,14,16,16,17,17,18,18,19,19,20,20,21,21,22,22,23,23,24,24,25,25,26,26,27,27,28,28,29,29,30,30],"right_children":[2,4,6,8,10,12,14,16,18,20,22,24,26,28,30,-1,32,34,36,38,40,42,44,46,48,50,52,54,56,58,60,-1,-1,-1,-1,-1,-1,-1,-1,-1,-1,-1,-1,-1,-1,-1,-1,-1,-1,-1,-1,-1,-1,-1,-1,-1,-1,-1,-1,-1,-1],"split_conditions":[5E-1,5E-1,1.6E1,-5E-1,2.5E0,1.5E0,9.5E0,-5E-1,-5E-1,5E-1,5E-1,1.5E0,1.6E1,2.5E0,1.6E1,-0E0,-5E-1,1.5E0,-1.5E0,7.5E0,5E-1,2.5E0,-5E-1,5E-1,5E-1,2.5E0,-5E-1,-5E-1,1.6E1,5E-1,1.6E1,-0E0,-2.243052E-1,-2.7334243E-1,-0E0,-0E0,-2.5903602E0,1.5154053E0,-0E0,-9.803026E-1,-0E0,1.968319E-1,-6.6915995E-1,-0E0,-1.5638821E0,1.274885E0,-7.979511E-2,-1.7453529E0,-3.9875928E-1,4.5590335E-1,1.7896947E0,1.4620583E0,-0E0,-0E0,1.0814552E0,-6.3665247E-1,3.571161E-1,1.3398874E0,-2.6972415E-2,-1.6498729E0,-4.1383895E-1],"split_indices":[10,6,14,24,13,5,29,21,23,16,22,21,16,13,17,0,22,11,22,18,4,19,17,18,4,12,14,12,12,18,4,0,0,0,0,0,0,0,0,0,0,0,0,0,0,0,0,0,0,0,0,0,0,0,0,0,0,0,0,0,0],"split_type":[0,0,0,0,0,0,0,0,0,0,0,0,0,0,0,0,0,0,0,0,0,0,0,0,0,0,0,0,0,0,0,0,0,0,0,0,0,0,0,0,0,0,0,0,0,0,0,0,0,0,0,0,0,0,0,0,0,0,0,0,0],"sum_hessian":[1.500212E6,2.52922E5,1.24729E6,6.6931E4,1.85991E5,6.00248E5,6.47042E5,1.0385E4,5.6546E4,7.7762E4,1.08229E5,1.48339E5,4.51909E5,3.032E5,3.43842E5,1.446E3,8.939E3,7.163E3,4.9383E4,2.5754E4,5.2008E4,2.4921E4,8.3308E4,5.659E4,9.1749E4,3.03849E5,1.4806E5,8.6791E4,2.16409E5,8.7282E4,2.5656E5,1.288E3,7.651E3,3.175E3,3.988E3,2.435E3,4.6948E4,1.8368E4,7.386E3,1.5747E4,3.6261E4,1.1324E4,1.3597E4,8.25E3,7.5058E4,1.6903E4,3.9687E4,2.7082E4,6.4667E4,7.6597E4,2.27252E5,2.7059E4,1.21001E5,9.656E3,7.7135E4,7.8791E4,1.37618E5,2.0699E4,6.6583E4,1.74256E5,8.2304E4],"tree_param":{"num_deleted":"0","num_feature":"30","num_nodes":"61","size_leaf_vector":"0"}},{"base_weights":[-5.7229232E-2,-2.9022484E0,5.414936E-1,-5.4332404E0,-1.3646059E0,2.9555793E0,-2.3468916E-1,-1.7078386E-1,-6.147203E0,1.0285715E0,-2.7569256E0,5.3073053E0,1.5950716E0,-1.9650178E0,1.0885645E0,-0E0,-1.7374748E0,-0E0,-6.4860797E0,3.334524E0,-0E0,-0E0,-3.7100182E0,-0E0,6.0460596E0,-1.1637175E0,2.615728E0,6.7024493E-1,-3.333334E0,-1.1842958E0,1.9737761E0,-0E0,-2.4152265E0,-0E0,-6.8476777E0,-0E0,4.064944E0,-1.297875E0,7.249839E-1,1.4474165E0,-8.365544E-1,-0E0,-4.214813E0,-9.3513034E-2,1.7573138E0,6.422597E-1,6.8244953E0,3.440716E-1,-3.1960104E0,-0E0,3.5306284E0,-1.7381132E0,1.8498197E0,-6.864094E-2,-4.261072E0,5.4119866E-2,-2.3816352E0,-3.9504045E-1,2.718484E0],"categories":[],"categories_nodes":[],"categories_segments":[],"categories_sizes":[],"default_left":[1,1,1,1,1,1,1,1,1,1,1,1,1,1,1,0,1,0,1,1,1,1,1,1,1,1,1,1,1,1,1,0,0,0,0,0,0,0,0,0,0,0,0,0,0,0,0,0,0,0,0,0,0,0,0,0,0,0,0],"id":6,"left_children":[1,3,5,7,9,11,13,15,17,19,21,23,25,27,29,-1,31,-1,33,35,37,39,41,43,45,47,49,51,53,55,57,-1,-1,-1,-1,-1,-1,-1,-1,-1,-1,-1,-1,-1,-1,-1,-1,-1,-1,-1,-1,-1,-1,-1,-1,-1,-1,-1,-1],"loss_changes":[2.5931578E6,9.244845E5,2.3571202E6,2.612195E5,5.909691E5,8.6689075E5,2.1418618E6,1.9522367E4,1.943935E5,1.383534E5,2.9039838E5,3.28153E5,5.8014494E5,1.5135902E6,1.0616098E6,0E0,1.2292807E4,0E0,1.881645E5,4.9486016E4,3.779439E4,3.444484E4,1.7963838E5,2.8406424E4,2.6729625E5,1.9629922E5,3.35049E5,3.86543E5,7.56205E5,2.463938E5,7.080006E5,0E0,0E0,0E0,0E0,0E0,0E0,0E0,0E0,0E0,0E0,0E0,0E0,0E0,0E0,0E0,0E0,0E0,0E0,0E0,0E0,0E0,0E0,0E0,0E0,0E0,0E0,0E0,0E0],"parents":[2147483647,0,0,1,1,2,2,3,3,4,4,5,5,6,6,7,7,8,8,9,9,10,10,11,11,12,12,13,13,14,14,16,16,18,18,19,19,20,20,21,21,22,22,23,23,24,24,25,25,26,26,27,27,28,28,29,29,30,30],"right_children":[2,4,6,8,10,12,14,16,18,20,22,24,26,28,30,-1,32,-1,34,36,38,40,42,44,46,48,50,52,54,56,58,-1,-1,-1,-1,-1,-1,-1,-1,-1,-1,-1,-1,-1,-1,-1,-1,-1,-1,-1,-1,-1,-1,-1,-1,-1,-1,-1,-1],"split_conditions":[5E-1,1.5E0,2.5E0,-5E-1,1.5E0,1.5E0,1.6E1,2.5E0,-1.5E0,5E-1,5E-1,-5E-1,5E-1,7.5E0,1.05E1,-0E0,-5E-1,-0E0,-1.5E0,-5E-1,1.5E0,1.5E0,-5E-1,1.5E0,-5E-1,2.5E0,1.5E0,1.5E0,1.6E1,1.6E1,1.6E1,-0E0,-7.2456795E-1,-0E0,-2.0543034E0,-0E0,1.2194831E0,-3.8936254E-1,2.1749517E-1,4.34225E-1,-2.5096634E-1,-0E0,-1.264444E0,-2.8053911E-2,5.271942E-1,1.9267793E-1,2.0473487E0,1.0322148E-1,-9.588031E-1,-0E0,1.0591886E0,-5.2143395E-1,5.5494595E-1,-2.0592283E-2,-1.2783217E0,1.623596E-2,-7.144906E-1,-1.1851214E-1,8.155452E-1],"split_indices":[3,9,19,21,17,22,2,17,23,15,16,6,4,23,11,0,15,0,22,8,6,23,14,9,12,24,6,11,24,24,12,0,0,0,0,0,0,0,0,0,0,0,0,0,0,0,0,0,0,0,0,0,0,0,0,0,0,0,0],"split_type":[0,0,0,0,0,0,0,0,0,0,0,0,0,0,0,0,0,0,0,0,0,0,0,0,0,0,0,0,0,0,0,0,0,0,0,0,0,0,0,0,0,0,0,0,0,0,0,0,0,0,0,0,0,0,0,0,0,0,0],"sum_hessian":[1.500212E6,2.65464E5,1.234748E6,9.6397E4,1.69067E5,3.05419E5,9.29329E5,1.419E4,8.2207E4,5.7962E4,1.11105E5,1.07628E5,1.97791E5,4.07953E5,5.21376E5,7.587E3,6.603E3,3.745E3,7.8462E4,1.7957E4,4.0005E4,2.8655E4,8.245E4,1.5718E4,9.191E4,4.9186E4,1.48605E5,1.35436E5,2.72517E5,1.41082E5,3.80294E5,1.079E3,5.524E3,4.055E3,7.4407E4,2.879E3,1.5078E4,1.4467E4,2.5538E4,1.0313E4,1.8342E4,8.455E3,7.3995E4,6.539E3,9.179E3,1.4158E4,7.7752E4,2.3723E4,2.5463E4,4.016E4,1.08445E5,4.0072E4,9.5364E4,6.4117E4,2.084E5,6.2791E4,7.8291E4,8.5828E4,2.94466E5],"tree_param":{"num_deleted":"0","num_feature":"30","num_nodes":"59","size_leaf_vector":"0"}},{"base_weights":[-3.4963112E-2,-4.1582165E0,3.4499118E-1,-9.753211E-1,-5.178603E0,3.0322897E0,-2.0658226E-1,-2.8091097E0,-0E0,-0E0,-5.583648E0,5.403219E0,1.56454E0,-2.372074E0,4.0177512E-1,-0E0,-4.020213E0,-1.829339E-1,9.7288084E-1,-0E0,-5.8922806E0,2.597059E0,6.916039E0,-9.343474E-1,2.4006352E0,-0E0,-3.5976481E0,1.9516422E0,-7.877657E-1,-0E0,-4.7154365E0,-0E0,-1.1467952E0,1.720796E0,-0E0,-0E0,-6.200304E0,4.905812E0,-0E0,-0E0,7.2861333E0,-3.1433651E0,-0E0,-0E0,3.2474997E0,4.0384007E0,-5.9156924E-1,-5.641354E0,-2.0967379E0,-1.2442132E0,2.4914315E0,1.5674951E0,-1.5435644E0],"categories":[],"categories_nodes":[],"categories_segments":[],"categories_sizes":[],"default_left":[1,1,1,1,1,1,1,1,1,0,1,1,1,1,1,0,1,1,1,0,1,1,1,1,1,1,1,1,1,0,0,0,0,0,0,0,0,0,0,0,0,0,0,0,0,0,0,0,0,0,0,0,0],"id":7,"left_children":[1,3,5,7,9,11,13,15,17,-1,19,21,23,25,27,-1,29,31,33,-1,35,37,39,41,43,45,47,49,51,-1,-1,-1,-1,-1,-1,-1,-1,-1,-1,-1,-1,-1,-1,-1,-1,-1,-1,-1,-1,-1,-1,-1,-1],"loss_changes":[2.4112445E6,3.24279E5,2.0759571E6,8.765009E4,2.3273775E5,7.1775975E5,1.5225524E6,5.0016836E4,1.0410228E4,0E0,1.7664025E5,2.1701825E5,3.3959278E5,7.830399E5,1.6370095E6,0E0,3.3942125E4,9.867496E3,1.0808409E4,0E0,1.6498175E5,1.3185589E5,1.570905E5,1.0018494E5,2.5051188E5,2.4124475E5,4.0060225E5,6.875784E5,8.733284E5,0E0,0E0,0E0,0E0,0E0,0E0,0E0,0E0,0E0,0E0,0E0,0E0,0E0,0E0,0E0,0E0,0E0,0E0,0E0,0E0,0E0,0E0,0E0,0E0],"parents":[2147483647,0,0,1,1,2,2,3,3,4,4,5,5,6,6,7,7,8,8,10,10,11,11,12,12,13,13,14,14,16,16,17,17,18,18,20,20,21,21,22,22,23,23,24,24,25,25,26,26,27,27,28,28],"right_children":[2,4,6,8,10,12,14,16,18,-1,20,22,24,26,28,-1,30,32,34,-1,36,38,40,42,44,46,48,50,52,-1,-1,-1,-1,-1,-1,-1,-1,-1,-1,-1,-1,-1,-1,-1,-1,-1,-1,-1,-1,-1,-1,-1,-1],"split_conditions":[-5E-1,5E-1,5E-1,1.5E0,-1.5E0,1.5E0,2.5E0,5E-1,2.5E0,-0E0,-1.5E0,1.5E0,5E-1,1.5E0,1.6E1,-0E0,-5E-1,-5E-1,1.6E1,-0E0,5E-1,1.5E0,-1.5E0,1.5E0,5E-1,-5E-1,2.5E0,5E-1,4.5E0,-0E0,-1.414631E0,-0E0,-3.4403855E-1,5.162388E-1,-0E0,-0E0,-1.8600913E0,1.4717436E0,-0E0,-0E0,2.1858401E0,-9.4300956E-1,-0E0,-0E0,9.7424996E-1,1.2115202E0,-1.7747077E-1,-1.6924063E0,-6.290214E-1,-3.7326398E-1,7.474295E-1,4.7024855E-1,-4.6306935E-1],"split_indices":[5,15,15,3,16,21,7,19,1,0,17,8,2,20,14,0,23,24,17,0,29,13,11,3,4,24,12,6,16,0,0,0,0,0,0,0,0,0,0,0,0,0,0,0,0,0,0,0,0,0,0,0,0],"split_type":[0,0,0,0,0,0,0,0,0,0,0,0,0,0,0,0,0,0,0,0,0,0,0,0,0,0,0,0,0,0,0,0,0,0,0,0,0,0,0,0,0,0,0,0,0,0,0,0,0,0,0,0,0],"sum_hessian":[1.500212E6,1.30127E5,1.370085E6,3.5392E4,9.4735E4,2.38256E5,1.131829E6,1.5373E4,2.0019E4,5.781E3,8.8954E4,8.6935E4,1.51321E5,2.53992E5,8.77837E5,4.773E3,1.06E4,9.352E3,1.0667E4,3.987E3,8.4967E4,3.4152E4,5.2783E4,3.3145E4,1.18176E5,8.3076E4,1.70916E5,3.87019E5,4.90818E5,1.369E3,9.231E3,1.612E3,7.74E3,7.059E3,3.608E3,3.941E3,8.1026E4,1.5049E4,1.9103E4,2.267E3,5.0516E4,1.3067E4,2.0078E4,2.9845E4,8.8331E4,1.3294E4,6.9782E4,6.7862E4,1.03054E5,5.1645E4,3.35374E5,1.14102E5,3.76716E5],"tree_param":{"num_deleted":"0","num_feature":"30","num_nodes":"53","size_leaf_vector":"0"}},{"base_weights":[-2.0404872E-2,2.4257326E0,-5.5398446E-1,4.5165634E0,7.728997E-1,-2.5769546E0,1.2433029E-1,-6.250861E-2,5.3195877E0,3.3441653E0,-0E0,-5.3157964E0,-1.492562E0,4.0519476E0,-1.2578891E-1,-0E0,-1.4538974E0,-0E0,6.2012043E0,-0E0,4.146222E0,-2.6055412E0,8.088096E-1,-2.3856378E-1,-6.119084E0,6.791708E-1,-2.5510693E0,-0E0,4.3288074E0,-1.3174564E0,7.3361063E-1,-0E0,4.8879288E-2,-0E0,-1.9562606E0,7.813195E-1,-0E0,2.7606013E-1,7.0881686E0,-0E0,4.887553E0,-0E0,-3.0717754E0,2.8556275E0,-7.1652816E-3,-1.5080448E0,-0E0,-0E0,-6.469691E0,-1.124776E0,1.5525942E0,8.247741E-1,-3.102038E0,-0E0,4.5942407E0,9.7122E-1,-2.0561497E0,-1.6856588E0,1.2534045E0],"categories":[],"categories_nodes":[],"categories_segments":[],"categories_sizes":[],"default_left":[1,1,1,1,1,1,1,1,1,1,1,1,1,1,1,1,1,1,1,0,1,1,1,1,1,1,1,0,1,1,1,0,0,0,0,0,0,0,0,0,0,0,0,0,0,0,0,0,0,0,0,0,0,0,0,0,0,0,0],"id":8,"left_children":[1,3,5,7,9,11,13,15,17,19,21,23,25,27,29,31,33,35,37,-1,39,41,43,45,47,49,51,-1,53,55,57,-1,-1,-1,-1,-1,-1,-1,-1,-1,-1,-1,-1,-1,-1,-1,-1,-1,-1,-1,-1,-1,-1,-1,-1,-1,-1,-1,-1],"loss_changes":[1.928181E6,8.253121E5,1.7365272E6,4.9573775E5,2.9453306E5,8.31248E5,9.669326E5,1.6943525E4,3.9515625E5,1.2005016E5,2.430259E5,2.4749625E5,5.607675E5,8.9776125E4,8.9159394E5,9.253313E0,8.329586E3,4.7035957E3,3.1621325E5,0E0,9.512181E4,3.6480656E4,1.9540817E5,2.1200904E4,1.7313225E5,1.1827353E5,3.3436788E5,0E0,8.887075E4,6.407681E5,6.127142E5,0E0,0E0,0E0,0E0,0E0,0E0,0E0,0E0,0E0,0E0,0E0,0E0,0E0,0E0,0E0,0E0,0E0,0E0,0E0,0E0,0E0,0E0,0E0,0E0,0E0,0E0,0E0,0E0],"parents":[2147483647,0,0,1,1,2,2,3,3,4,4,5,5,6,6,7,7,8,8,9,9,10,10,11,11,12,12,13,13,14,14,15,15,16,16,17,17,18,18,20,20,21,21,22,22,23,23,24,24,25,25,26,26,28,28,29,29,30,30],"right_children":[2,4,6,8,10,12,14,16,18,20,22,24,26,28,30,32,34,36,38,-1,40,42,44,46,48,50,52,-1,54,56,58,-1,-1,-1,-1,-1,-1,-1,-1,-1,-1,-1,-1,-1,-1,-1,-1,-1,-1,-1,-1,-1,-1,-1,-1,-1,-1,-1,-1],"split_conditions":[5E-1,2.5E0,2.5E0,-5E-1,5E-1,5E-1,-5E-1,1.5E0,-5E-1,-5E-1,5E-1,-5E-1,1.5E0,-1.5E0,1.6E1,5E-1,-5E-1,2.5E0,-5E-1,-0E0,-5E-1,-5E-1,1.5E0,5E-1,-1.5E0,5E-1,-5E-1,-0E0,-1.5E0,2.5E0,2.5E0,-0E0,1.4663787E-2,-0E0,-5.868782E-1,2.3439586E-1,-0E0,8.2818046E-2,2.1264508E0,-0E0,1.466266E0,-0E0,-9.215327E-1,8.566883E-1,-2.1495845E-3,-4.5241347E-1,-0E0,-0E0,-1.9409074E0,-3.374328E-1,4.6577826E-1,2.4743223E-1,-9.3061143E-1,-0E0,1.3782723E0,2.91366E-1,-6.1684495E-1,-5.0569767E-1,3.7602136E-1],"split_indices":[18,21,1,11,22,4,23,14,12,10,3,24,23,4,2,7,16,23,8,0,9,15,16,1,22,10,24,0,2,13,7,0,0,0,0,0,0,0,0,0,0,0,0,0,0,0,0,0,0,0,0,0,0,0,0,0,0,0,0],"split_type":[0,0,0,0,0,0,0,0,0,0,0,0,0,0,0,0,0,0,0,0,0,0,0,0,0,0,0,0,0,0,0,0,0,0,0,0,0,0,0,0,0,0,0,0,0,0,0,0,0,0,0,0,0,0,0,0,0,0,0],"sum_hessian":[1.500212E6,2.6328E5,1.236932E6,1.11969E5,1.51311E5,3.16519E5,9.20413E5,1.3737E4,9.8232E4,3.4418E4,1.16893E5,8.5594E4,2.30925E5,5.8929E4,8.61484E5,5.697E3,8.04E3,1.567E4,8.2562E4,5.045E3,2.9373E4,2.7149E4,8.9744E4,1.441E4,7.1184E4,7.0724E4,1.60201E5,2.506E3,5.6423E4,3.68754E5,4.9273E5,1.825E3,3.872E3,1.423E3,6.617E3,7.704E3,7.966E3,1.3096E4,6.9466E4,4.253E3,2.512E4,3.75E3,2.3399E4,3.1161E4,5.8583E4,9.682E3,4.728E3,3.37E3,6.7814E4,1.7103E4,5.3621E4,1.8408E4,1.41793E5,2.121E3,5.4302E4,8.4699E4,2.84055E5,8.1705E4,4.11025E5],"tree_param":{"num_deleted":"0","num_feature":"30","num_nodes":"59","size_leaf_vector":"0"}},{"base_weights":[-8.381634E-3,3.488758E0,-3.651418E-1,9.4200325E-1,4.729297E0,-2.4614727E0,1.8076055E-1,-0E0,2.8167176E0,-0E0,5.245352E0,-0E0,-3.366789E0,2.241006E0,-2.7674186E-1,1.3077898E0,-1.03025E0,-0E0,3.4257767E0,-0E0,5.5601845E0,-1.6387119E0,1.249456E0,-4.6883297E0,-1.496935E0,-9.9783015E-1,2.805391E0,-3.9708095E0,-3.7245113E-2,-0E0,1.7580776E0,-0E0,-2.189095E0,-0E0,3.7281759E0,7.5534678E0,3.7869556E0,-0E0,-2.860918E0,-0E0,2.2550685E0,-0E0,-5.3609567E0,3.712748E-2,-2.160078E0,-0E0,-2.4205565E0,-0E0,3.5306287E0,-6.0706015E0,-1.1378053E0,9.100275E-1,-7.9127043E-1],"categories":[],"categories_nodes":[],"categories_segments":[],"categories_sizes":[],"default_left":[1,1,1,1,1,1,1,1,1,0,1,1,1,1,1,1,1,0,1,0,1,1,1,1,1,1,1,1,1,0,0,0,0,0,0,0,0,0,0,0,0,0,0,0,0,0,0,0,0,0,0,0,0],"id":9,"left_children":[1,3,5,7,9,11,13,15,17,-1,19,21,23,25,27,29,31,-1,33,-1,35,37,39,41,43,45,47,49,51,-1,-1,-1,-1,-1,-1,-1,-1,-1,-1,-1,-1,-1,-1,-1,-1,-1,-1,-1,-1,-1,-1,-1,-1],"loss_changes":[1.8218099E6,3.3502338E5,1.5990968E6,1.02760234E5,1.8435275E5,6.8958725E5,1.0468365E6,3.8700785E4,3.9033953E4,0E0,1.6187775E5,1.446056E5,4.32096E5,3.9833244E5,7.102635E5,1.0249561E4,4.3885207E4,0E0,2.1454047E4,0E0,7.9208E4,6.8466336E4,9.044385E4,3.274515E5,1.2953544E5,5.439118E4,3.2799312E5,1.7762356E5,5.880793E5,0E0,0E0,0E0,0E0,0E0,0E0,0E0,0E0,0E0,0E0,0E0,0E0,0E0,0E0,0E0,0E0,0E0,0E0,0E0,0E0,0E0,0E0,0E0,0E0],"parents":[2147483647,0,0,1,1,2,2,3,3,4,4,5,5,6,6,7,7,8,8,10,10,11,11,12,12,13,13,14,14,15,15,16,16,18,18,20,20,21,21,22,22,23,23,24,24,25,25,26,26,27,27,28,28],"right_children":[2,4,6,8,10,12,14,16,18,-1,20,22,24,26,28,30,32,-1,34,-1,36,38,40,42,44,46,48,50,52,-1,-1,-1,-1,-1,-1,-1,-1,-1,-1,-1,-1,-1,-1,-1,-1,-1,-1,-1,-1,-1,-1,-1,-1],"split_conditions":[-5E-1,1.5E0,1.5E0,6.5E0,-5E-1,5E-1,1.5E0,5E-1,-5E-1,-0E0,-1.5E0,-5E-1,7.5E0,-5E-1,-5E-1,-5E-1,5E-1,-0E0,-1.5E0,-0E0,2.5E0,1.5E0,5E-1,-5E-1,5E-1,3.5E0,5E-1,8.5E0,1.6E1,-0E0,5.274233E-1,-0E0,-6.567285E-1,-0E0,1.1184528E0,2.2660403E0,1.1360867E0,-0E0,-8.582755E-1,-0E0,6.765206E-1,-0E0,-1.6082871E0,1.11382445E-2,-6.480234E-1,-0E0,-7.2616696E-1,-0E0,1.0591886E0,-1.8211805E0,-3.413416E-1,2.7300826E-1,-2.3738115E-1],"split_indices":[17,9,11,11,10,20,19,13,4,0,5,11,8,12,6,1,21,0,5,0,13,14,6,24,16,17,6,7,14,0,0,0,0,0,0,0,0,0,0,0,0,0,0,0,0,0,0,0,0,0,0,0,0],"split_type":[0,0,0,0,0,0,0,0,0,0,0,0,0,0,0,0,0,0,0,0,0,0,0,0,0,0,0,0,0,0,0,0,0,0,0,0,0,0,0,0,0,0,0,0,0,0,0,0,0,0,0,0,0],"sum_hessian":[1.500212E6,1.34729E5,1.365483E6,4.8351E4,8.6378E4,2.88165E5,1.077318E6,2.9992E4,1.8359E4,9.46E3,7.6918E4,7.3302E4,2.14863E5,2.02107E5,8.75211E5,1.0578E4,1.9414E4,2.622E3,1.5737E4,3.228E3,7.369E4,2.6833E4,4.6469E4,1.20881E5,9.3982E4,2.579E4,1.76317E5,4.9224E4,8.25987E5,1.409E3,9.169E3,5.957E3,1.3457E4,9.06E2,1.4831E4,3.0448E4,4.3242E4,9.665E3,1.7168E4,1.4419E4,3.205E4,1.7037E4,1.03844E5,2.1092E4,7.289E4,1.2125E4,1.3665E4,3.8684E4,1.37633E5,2.503E4,2.4194E4,3.56689E5,4.69298E5],"tree_param":{"num_deleted":"0","num_feature":"30","num_nodes":"53","size_leaf_vector":"0"}},{"base_weights":[-2.8066724E-3,2.139996E0,-4.7008488E-1,-1.3647994E0,2.7345638E0,-2.0998995E0,1.2925674E-1,-4.0500984E0,-0E0,-3.5909418E-2,3.2221363E0,-0E0,-2.8420763E0,2.3839893E0,-1.835853E-1,-0E0,-4.946902E0,-1.7257373E0,6.230894E-1,-3.0931234E0,3.4180218E-1,-0E0,3.656892E0,2.4587681E0,-9.0834785E-1,-2.7375445E-1,-3.5806282E0,-0E0,3.290441E0,-1.5258629E0,2.652245E-1,-0E0,-5.6232147E0,-0E0,-2.628037E0,1.789044E0,-0E0,-0E0,-4.2105913E0,-0E0,1.4929986E0,-1.3238173E0,7.067938E-1,-0E0,4.0989532E0,-0E0,3.6686058E0,-2.95628E0,-0E0,-2.0255864E0,5.6153244E-1,-5.203738E0,-2.316038E0,1.6034132E0,-2.0632248E-1,5.5715055E0,1.770067E0,-0E0,-2.502323E0,-7.9411376E-1,1.1061152E0],"categories":[],"categories_nodes":[],"categories_segments":[],"categories_sizes":[],"default_left":[1,1,1,1,1,1,1,1,1,1,1,1,1,1,1,0,1,1,1,1,1,1,1,1,1,1,1,1,1,1,1,0,0,0,0,0,0,0,0,0,0,0,0,0,0,0,0,0,0,0,0,0,0,0,0,0,0,0,0,0,0],"id":10,"left_children":[1,3,5,7,9,11,13,15,17,19,21,23,25,27,29,-1,31,33,35,37,39,41,43,45,47,49,51,53,55,57,59,-1,-1,-1,-1,-1,-1,-1,-1,-1,-1,-1,-1,-1,-1,-1,-1,-1,-1,-1,-1,-1,-1,-1,-1,-1,-1,-1,-1,-1,-1],"loss_changes":[1.4754554E6,5.6881375E5,1.240552E6,1.0978624E5,3.5929362E5,5.377736E5,6.684495E5,4.3828938E4,2.9578107E4,7.775689E4,2.6874325E5,2.0041766E5,4.1672162E5,2.1902338E5,4.9135588E5,0E0,4.4430625E4,2.2569246E4,2.845333E4,1.7587117E4,2.7223E4,2.1147406E4,2.2447975E5,7.990456E4,1.446568E5,1.1288035E5,2.7188825E5,2.4563559E4,1.6329962E5,3.4041838E5,5.1920656E5,0E0,0E0,0E0,0E0,0E0,0E0,0E0,0E0,0E0,0E0,0E0,0E0,0E0,0E0,0E0,0E0,0E0,0E0,0E0,0E0,0E0,0E0,0E0,0E0,0E0,0E0,0E0,0E0,0E0,0E0],"parents":[2147483647,0,0,1,1,2,2,3,3,4,4,5,5,6,6,7,7,8,8,9,9,10,10,11,11,12,12,13,13,14,14,16,16,17,17,18,18,19,19,20,20,21,21,22,22,23,23,24,24,25,25,26,26,27,27,28,28,29,29,30,30],"right_children":[2,4,6,8,10,12,14,16,18,20,22,24,26,28,30,-1,32,34,36,38,40,42,44,46,48,50,52,54,56,58,60,-1,-1,-1,-1,-1,-1,-1,-1,-1,-1,-1,-1,-1,-1,-1,-1,-1,-1,-1,-1,-1,-1,-1,-1,-1,-1,-1,-1,-1,-1],"split_conditions":[5E-1,-5E-1,2.5E0,5E-1,-5E-1,5E-1,5E-1,-1.5E0,-1.5E0,5E-1,-5E-1,5E-1,5E-1,1.5E0,1.6E1,-0E0,-1.5E0,-5E-1,1.15E1,5E-1,5E-1,5E-1,-5E-1,5E-1,1.5E0,2.5E0,3.5E0,5E-1,2.5E0,2.5E0,1.6E1,-0E0,-1.6869645E0,-0E0,-7.8841114E-1,5.3671324E-1,-0E0,-0E0,-1.2631774E0,-0E0,4.478996E-1,-3.9714518E-1,2.1203814E-1,-0E0,1.229686E0,-0E0,1.1005818E0,-8.8688403E-1,-0E0,-6.076759E-1,1.6845974E-1,-1.5611216E0,-6.948114E-1,4.81024E-1,-6.1896745E-2,1.6714517E0,5.310201E-1,-0E0,-7.506969E-1,-2.3823413E-1,3.3183458E-1],"split_indices":[22,10,12,8,5,20,16,22,10,2,7,21,13,9,10,0,16,15,23,20,4,8,9,8,9,6,9,20,13,13,15,0,0,0,0,0,0,0,0,0,0,0,0,0,0,0,0,0,0,0,0,0,0,0,0,0,0,0,0,0,0],"split_type":[0,0,0,0,0,0,0,0,0,0,0,0,0,0,0,0,0,0,0,0,0,0,0,0,0,0,0,0,0,0,0,0,0,0,0,0,0,0,0,0,0,0,0,0,0,0,0,0,0,0,0,0,0,0,0,0,0,0,0,0,0],"sum_hessian":[1.500212E6,2.62457E5,1.237755E6,3.4168E4,2.28289E5,3.39957E5,8.97798E5,1.0572E4,2.3596E4,2.9259E4,1.9903E5,8.7792E4,2.52165E5,1.15614E5,7.82184E5,1.695E3,8.877E3,7.882E3,1.5714E4,7.869E3,2.139E4,2.4415E4,1.74615E5,2.4514E4,6.3278E4,6.1151E4,1.91014E5,3.4696E4,8.0918E4,2.04921E5,5.77263E5,6.02E2,8.275E3,1.216E3,6.666E3,1.0795E4,4.919E3,2.631E3,5.238E3,8.057E3,1.3333E4,7.142E3,1.7273E4,2.2272E4,1.52343E5,7.566E3,1.6948E4,2.2525E4,4.0753E4,2.592E4,3.5231E4,7.8114E4,1.129E5,9.13E3,2.5566E4,2.8158E4,5.276E4,7.436E4,1.30561E5,2.47041E5,3.30222E5],"tree_param":{"num_deleted":"0","num_feature":"30","num_nodes":"61","size_leaf_vector":"0"}},{"base_weights":[-0E0,2.8602107E0,-3.2289007E-1,5.0015557E-1,3.6734002E0,-2.497736E0,8.350791E-2,2.5604894E0,-0E0,-0E0,4.04612E0,1.2425218E0,-3.1187875E0,3.3314776E0,-1.5164874E-1,-0E0,3.0335276E0,-1.9671985E0,9.638692E-2,-0E0,4.409385E0,-0E0,2.7195344E0,5.3939325E-1,-3.5239885E0,6.455005E0,2.0249908E0,-1.8399721E0,2.0369263E-1,-0E0,3.4533834E0,-0E0,-2.910856E0,-0E0,9.435201E-1,-0E0,4.975787E-1,-0E0,4.7140675E0,-0E0,-1.6667253E-1,-0E0,4.0071473E0,1.4647499E0,-0E0,-5.082028E0,-2.0597494E0,4.018345E-1,7.9852023E0,-0E0,2.5553572E0,-1.1585406E-1,-2.8548708E0,1.6383395E0,-3.0159533E-1],"categories":[],"categories_nodes":[],"categories_segments":[],"categories_sizes":[],"default_left":[1,1,1,1,1,1,1,1,1,0,1,1,1,1,1,0,1,1,1,1,1,1,1,1,1,1,1,1,1,0,0,0,0,0,0,0,0,0,0,0,0,0,0,0,0,0,0,0,0,0,0,0,0,0,0],"id":11,"left_children":[1,3,5,7,9,11,13,15,17,-1,19,21,23,25,27,-1,29,31,33,35,37,39,41,43,45,47,49,51,53,-1,-1,-1,-1,-1,-1,-1,-1,-1,-1,-1,-1,-1,-1,-1,-1,-1,-1,-1,-1,-1,-1,-1,-1,-1,-1],"loss_changes":[1.3516009E6,2.1730675E5,1.2337546E6,8.41595E4,1.28119625E5,5.389106E5,9.1628944E5,3.0042492E4,3.4546594E4,0E0,8.5960375E4,7.960297E4,3.3164088E5,1.9538669E5,6.5730856E5,0E0,2.726104E4,2.222727E4,1.2549925E4,1.5362623E3,6.03335E4,2.1857092E2,4.7435117E4,1.6528516E4,2.8825825E5,5.4060688E4,9.537575E4,2.8629212E5,6.457339E5,0E0,0E0,0E0,0E0,0E0,0E0,0E0,0E0,0E0,0E0,0E0,0E0,0E0,0E0,0E0,0E0,0E0,0E0,0E0,0E0,0E0,0E0,0E0,0E0,0E0,0E0],"parents":[2147483647,0,0,1,1,2,2,3,3,4,4,5,5,6,6,7,7,8,8,10,10,11,11,12,12,13,13,14,14,16,16,17,17,18,18,19,19,20,20,21,21,22,22,23,23,24,24,25,25,26,26,27,27,28,28],"right_children":[2,4,6,8,10,12,14,16,18,-1,20,22,24,26,28,-1,30,32,34,36,38,40,42,44,46,48,50,52,54,-1,-1,-1,-1,-1,-1,-1,-1,-1,-1,-1,-1,-1,-1,-1,-1,-1,-1,-1,-1,-1,-1,-1,-1,-1,-1],"split_conditions":[-5E-1,5E-1,5E-1,5E-1,-5E-1,-5E-1,-5E-1,-1.5E0,5E-1,-0E0,-5E-1,1.5E0,1.5E0,5E-1,1.5E0,-0E0,-1.5E0,-5E-1,5E-1,2.5E0,5E-1,5E-1,1.5E0,5E-1,3.5E0,5E-1,-5E-1,2.5E0,1.6E1,-0E0,1.036015E0,-0E0,-8.7325686E-1,-0E0,2.8305605E-1,-0E0,1.4927362E-1,-0E0,1.4142203E0,-0E0,-5.000176E-2,-0E0,1.2021443E0,4.39425E-1,-0E0,-1.5246085E0,-6.179248E-1,1.2055035E-1,2.3955607E0,-0E0,7.666072E-1,-3.475622E-2,-8.564613E-1,4.9150187E-1,-9.04786E-2],"split_indices":[24,4,7,16,11,23,18,8,1,0,1,3,29,21,3,0,7,14,8,2,27,14,8,29,8,6,2,13,24,0,0,0,0,0,0,0,0,0,0,0,0,0,0,0,0,0,0,0,0,0,0,0,0,0,0],"split_type":[0,0,0,0,0,0,0,0,0,0,0,0,0,0,0,0,0,0,0,0,0,0,0,0,0,0,0,0,0,0,0,0,0,0,0,0,0,0,0,0,0,0,0,0,0,0,0,0,0,0,0,0,0,0,0],"sum_hessian":[1.500212E6,1.47982E5,1.35223E6,4.2959E4,1.05023E5,2.19089E5,1.133141E6,1.4475E4,2.8484E4,1.0632E4,9.4391E4,2.7534E4,1.91555E5,8.1089E4,1.052052E6,8.98E2,1.3577E4,8.879E3,1.9605E4,1.0491E4,8.39E4,1.1024E4,1.651E4,1.5169E4,1.76386E5,2.0306E4,6.0783E4,1.90744E5,8.61308E5,8.15E2,1.2762E4,2.201E3,6.678E3,5.304E3,1.4301E4,4.287E3,6.204E3,7.78E3,7.612E4,3.157E3,7.867E3,5.952E3,1.0558E4,9.76E3,5.409E3,8.0167E4,9.6219E4,6.205E3,1.4101E4,8.007E3,5.2776E4,7.6512E4,1.14232E5,2.32579E5,6.28729E5],"tree_param":{"num_deleted":"0","num_feature":"30","num_nodes":"55","size_leaf_vector":"0"}},{"base_weights":[-0E0,1.5686845E0,-4.6530628E-1,-5.962139E-1,2.3768651E0,-2.574206E0,-4.3768443E-2,2.13919E0,-1.3064473E0,3.3918078E0,8.053461E-1,-4.5169754E0,-1.4485506E0,-2.0283055E0,2.1750486E-1,-0E0,2.735904E0,-0E0,-2.5310206E0,8.4748286E-1,4.320117E0,-6.0377634E-1,1.3947558E0,-0E0,-5.1163993E0,1.6719893E0,-2.0341437E0,-0E0,-2.8314912E0,2.4260545E0,-4.589088E-2,-0E0,3.072279E0,1.5765541E0,-2.2457515E-1,-0E0,-3.172295E0,-0E0,2.007641E0,3.743346E-3,4.7949963E0,-1.7866592E0,-0E0,2.5511048E0,5.1248554E-2,-0E0,-5.6468266E-1,-0E0,-5.4122505E0,2.814804E0,-0E0,-0E0,-2.6175091E0,2.2933848E0,-6.332663E-1,-0E0,-3.251809E0,-0E0,3.0891929E0,-1.1324302E0,2.8913006E-1],"categories":[],"categories_nodes":[],"categories_segments":[],"categories_sizes":[],"default_left":[1,1,1,1,1,1,1,1,1,1,1,1,1,1,1,0,1,1,1,1,1,1,1,1,1,1,1,1,1,1,1,0,0,0,0,0,0,0,0,0,0,0,0,0,0,0,0,0,0,0,0,0,0,0,0,0,0,0,0,0,0],"id":12,"left_children":[1,3,5,7,9,11,13,15,17,19,21,23,25,27,29,-1,31,33,35,37,39,41,43,45,47,49,51,53,55,57,59,-1,-1,-1,-1,-1,-1,-1,-1,-1,-1,-1,-1,-1,-1,-1,-1,-1,-1,-1,-1,-1,-1,-1,-1,-1,-1,-1,-1,-1,-1],"loss_changes":[1.0948126E6,6.287518E5,9.86817E5,1.5744744E5,3.39981E5,3.1239488E5,5.3223806E5,2.4637277E4,1.5338503E5,2.6906675E5,1.00949516E5,1.14442625E5,2.310266E5,2.1246428E5,5.32868E5,0E0,1.3497367E4,2.9191113E4,9.7700625E4,7.1756016E4,1.3747562E5,2.5767188E4,8.73023E4,1.9839873E3,1.00797625E5,3.1483492E4,1.24514875E5,5.6304855E4,1.22363875E5,1.3331225E5,2.8777153E5,0E0,0E0,0E0,0E0,0E0,0E0,0E0,0E0,0E0,0E0,0E0,0E0,0E0,0E0,0E0,0E0,0E0,0E0,0E0,0E0,0E0,0E0,0E0,0E0,0E0,0E0,0E0,0E0,0E0,0E0],"parents":[2147483647,0,0,1,1,2,2,3,3,4,4,5,5,6,6,7,7,8,8,9,9,10,10,11,11,12,12,13,13,14,14,16,16,17,17,18,18,19,19,20,20,21,21,22,22,23,23,24,24,25,25,26,26,27,27,28,28,29,29,30,30],"right_children":[2,4,6,8,10,12,14,16,18,20,22,24,26,28,30,-1,32,34,36,38,40,42,44,46,48,50,52,54,56,58,60,-1,-1,-1,-1,-1,-1,-1,-1,-1,-1,-1,-1,-1,-1,-1,-1,-1,-1,-1,-1,-1,-1,-1,-1,-1,-1,-1,-1,-1,-1],"split_conditions":[1.5E0,5E-1,5E-1,-5E-1,7.5E0,1.5E0,5E-1,-5E-1,1.5E0,5E-1,5E-1,-5E-1,-5E-1,5E-1,5E-1,-0E0,-1.5E0,-5E-1,-5E-1,1.5E0,-5E-1,3.5E0,7.5E0,5E-1,-1.5E0,5.5E0,5E-1,5E-1,-5E-1,5E-1,1.6E1,-0E0,9.216837E-1,4.7296622E-1,-6.7372546E-2,-0E0,-9.516886E-1,-0E0,6.0229236E-1,1.1230039E-3,1.438499E0,-5.359978E-1,-0E0,7.6533145E-1,1.5374566E-2,-0E0,-1.694048E-1,-0E0,-1.6236752E0,8.4444124E-1,-0E0,-0E0,-7.8525275E-1,6.8801546E-1,-1.8997991E-1,-0E0,-9.755427E-1,-0E0,9.267579E-1,-3.3972907E-1,8.673902E-2],"split_indices":[23,8,4,18,20,1,5,10,21,1,4,16,15,16,15,0,4,23,20,4,2,5,17,20,22,21,13,13,14,1,12,0,0,0,0,0,0,0,0,0,0,0,0,0,0,0,0,0,0,0,0,0,0,0,0,0,0,0,0,0,0],"split_type":[0,0,0,0,0,0,0,0,0,0,0,0,0,0,0,0,0,0,0,0,0,0,0,0,0,0,0,0,0,0,0,0,0,0,0,0,0,0,0,0,0,0,0,0,0,0,0,0,0,0,0,0,0,0,0,0,0,0,0,0,0],"sum_hessian":[1.500212E6,3.43097E5,1.157115E6,8.789E4,2.55207E5,1.86444E5,9.70671E5,1.3478E4,7.4412E4,1.48883E5,1.06324E5,6.3188E4,1.23256E5,1.20041E5,8.5063E5,1.947E3,1.1531E4,3.0643E4,4.3769E4,4.4402E4,1.04481E5,2.3361E4,8.2963E4,9.567E3,5.3621E4,1.5163E4,1.08093E5,3.1943E4,8.8098E4,9.7102E4,7.53528E5,9.57E2,1.0574E4,1.1352E4,1.9291E4,6.199E3,3.757E4,1.8688E4,2.5714E4,1.3691E4,9.079E4,1.0739E4,1.2622E4,3.8194E4,4.4769E4,3.346E3,6.221E3,2.261E3,5.136E4,9.323E3,5.84E3,2.4639E4,8.3454E4,8.951E3,2.2992E4,9.731E3,7.8367E4,2.3245E4,7.3857E4,1.88826E5,5.64702E5],"tree_param":{"num_deleted":"0","num_feature":"30","num_nodes":"61","size_leaf_vector":"0"}},{"base_weights":[-0E0,1.8246633E0,-3.7798035E-1,4.0419455E0,9.460609E-1,-2.392325E0,-0E0,-0E0,4.723096E0,-6.901186E-1,1.8548756E0,-4.6119432E0,-1.1863364E0,-2.7847755E0,1.8978079E-1,-0E0,5.013699E0,-3.1077602E0,7.348597E-1,-0E0,2.6790638E0,-0E0,-5.344583E0,-2.542737E0,-0E0,-0E0,-3.0860896E0,1.266049E0,-3.3645204E-1,-0E0,5.549867E0,-0E0,-4.45039E0,-1.8901853E-1,1.7738967E0,2.2989283E0,-1.3922448E-1,-0E0,2.939079E0,-0E0,-3.5142162E-1,-0E0,-5.849532E0,-0E0,-3.7044072E0,1.9063599E0,-5.458308E-1,-0E0,-3.219792E0,-5.9537107E-1,1.8530797E0,4.953362E-1,-1.0211087E0],"categories":[],"categories_nodes":[],"categories_segments":[],"categories_sizes":[],"default_left":[1,1,1,1,1,1,1,0,1,1,1,1,1,1,1,0,1,1,1,1,1,1,1,1,1,0,1,1,1,0,0,0,0,0,0,0,0,0,0,0,0,0,0,0,0,0,0,0,0,0,0,0,0],"id":13,"left_children":[1,3,5,7,9,11,13,-1,15,17,19,21,23,25,27,-1,29,31,33,35,37,39,41,43,45,-1,47,49,51,-1,-1,-1,-1,-1,-1,-1,-1,-1,-1,-1,-1,-1,-1,-1,-1,-1,-1,-1,-1,-1,-1,-1,-1],"loss_changes":[1.0563168E6,4.3503738E5,9.093113E5,1.8463812E5,3.07695E5,4.1522325E5,5.873726E5,0E0,9.4063125E4,2.5545944E5,1.7870994E5,1.6203012E5,1.971096E5,5.5077688E4,5.670849E5,0E0,8.2602375E4,1.0333447E5,5.947296E4,3.1609506E4,9.635531E4,7.7037524E2,1.4743088E5,1.3209394E5,6.775463E4,0E0,3.28955E4,3.808662E5,3.7565497E5,0E0,0E0,0E0,0E0,0E0,0E0,0E0,0E0,0E0,0E0,0E0,0E0,0E0,0E0,0E0,0E0,0E0,0E0,0E0,0E0,0E0,0E0,0E0,0E0],"parents":[2147483647,0,0,1,1,2,2,3,3,4,4,5,5,6,6,8,8,9,9,10,10,11,11,12,12,13,13,14,14,16,16,17,17,18,18,19,19,20,20,21,21,22,22,23,23,24,24,26,26,27,27,28,28],"right_children":[2,4,6,8,10,12,14,-1,16,18,20,22,24,26,28,-1,30,32,34,36,38,40,42,44,46,-1,48,50,52,-1,-1,-1,-1,-1,-1,-1,-1,-1,-1,-1,-1,-1,-1,-1,-1,-1,-1,-1,-1,-1,-1,-1,-1],"split_conditions":[5E-1,5E-1,5E-1,-5E-1,1.5E0,1.5E0,5E-1,-0E0,-1.5E0,2.5E0,1.5E0,-5E-1,4.5E0,-5E-1,1.6E1,-0E0,-5E-1,5E-1,5E-1,-5E-1,-1.5E0,1.5E0,1.5E0,1.5E0,5E-1,-0E0,-1.5E0,5E-1,1.6E1,-0E0,1.6649603E0,-0E0,-1.335117E0,-5.670556E-2,5.3216904E-1,6.896785E-1,-4.1767348E-2,-0E0,8.8172376E-1,-0E0,-1.0542649E-1,-0E0,-1.7548597E0,-0E0,-1.1113222E0,5.71908E-1,-1.6374925E-1,-0E0,-9.659376E-1,-1.7861132E-1,5.5592394E-1,1.4860086E-1,-3.0633265E-1],"split_indices":[17,14,9,3,2,6,27,0,5,6,1,20,11,24,24,0,2,19,10,21,8,14,29,20,21,0,22,6,3,0,0,0,0,0,0,0,0,0,0,0,0,0,0,0,0,0,0,0,0,0,0,0,0],"split_type":[0,0,0,0,0,0,0,0,0,0,0,0,0,0,0,0,0,0,0,0,0,0,0,0,0,0,0,0,0,0,0,0,0,0,0,0,0,0,0,0,0,0,0,0,0,0,0,0,0,0,0,0,0],"sum_hessian":[1.500212E6,2.64231E5,1.235981E6,6.9825E4,1.94406E5,1.89734E5,1.046247E6,1.0411E4,5.9414E4,6.3143E4,1.31263E5,6.213E4,1.27604E5,7.1212E4,9.75035E5,2.946E3,5.6468E4,2.7574E4,3.5569E4,4.3442E4,8.7821E4,1.0194E4,5.1936E4,5.8262E4,6.9342E4,7.444E3,6.3768E4,3.30156E5,6.44879E5,7.702E3,4.8766E4,8.911E3,1.8663E4,1.0687E4,2.4882E4,5.842E3,3.76E4,3.697E3,8.4124E4,3.957E3,6.237E3,4.271E3,4.7665E4,2.1186E4,3.7076E4,1.4115E4,5.5227E4,2.013E3,6.1755E4,7.263E4,2.57526E5,2.80617E5,3.64262E5],"tree_param":{"num_deleted":"0","num_feature":"30","num_nodes":"53","size_leaf_vector":"0"}},{"base_weights":[-0E0,-2.5731592E0,2.2319742E-1,-1.3159402E-1,-3.5537312E0,2.0844798E0,-1.3977794E-1,-1.8935323E0,3.617863E-2,-0E0,-3.8104744E0,-4.1709575E-1,2.5805457E0,-1.447719E0,2.4464701E-1,-0E0,-2.5285044E0,-0E0,8.766687E-1,-0E0,-4.066298E0,-0E0,-1.4218636E0,3.8810658E0,1.276231E0,1.0608275E0,-1.8898568E0,2.1902723E0,-0E0,-0E0,-3.1749315E0,-0E0,-3.5132688E-1,-0E0,1.3720461E0,-0E0,-4.3024554E0,-0E0,6.7995596E-1,-0E0,-2.2794383E0,9.2710626E-1,4.864369E0,2.8912995E0,2.523387E-1,-0E0,1.6225598E0,1.2261056E0,-2.2114613E0,4.0085115E0,8.568628E-1,-9.669986E-1,3.1997687E-1],"categories":[],"categories_nodes":[],"categories_segments":[],"categories_sizes":[],"default_left":[1,1,1,1,1,1,1,1,1,0,1,1,1,1,1,0,1,1,1,0,1,1,1,1,1,1,1,1,1,0,0,0,0,0,0,0,0,0,0,0,0,0,0,0,0,0,0,0,0,0,0,0,0],"id":14,"left_children":[1,3,5,7,9,11,13,15,17,-1,19,21,23,25,27,-1,29,31,33,-1,35,37,39,41,43,45,47,49,51,-1,-1,-1,-1,-1,-1,-1,-1,-1,-1,-1,-1,-1,-1,-1,-1,-1,-1,-1,-1,-1,-1,-1,-1],"loss_changes":[8.7280475E5,2.318655E5,9.625725E5,4.1349375E4,1.04903625E5,3.2270344E5,5.9573406E5,2.2128602E4,1.4768208E4,0E0,9.1207E4,3.3801375E4,2.5529688E5,3.1259394E5,4.5002056E5,0E0,2.0850855E4,9.126456E2,1.6104399E4,0E0,9.2134125E4,4.3575557E3,3.1089293E4,1.7919E5,1.24285375E5,4.0649E4,2.511115E5,1.761944E5,2.4852078E5,0E0,0E0,0E0,0E0,0E0,0E0,0E0,0E0,0E0,0E0,0E0,0E0,0E0,0E0,0E0,0E0,0E0,0E0,0E0,0E0,0E0,0E0,0E0,0E0],"parents":[2147483647,0,0,1,1,2,2,3,3,4,4,5,5,6,6,7,7,8,8,10,10,11,11,12,12,13,13,14,14,16,16,17,17,18,18,20,20,21,21,22,22,23,23,24,24,25,25,26,26,27,27,28,28],"right_children":[2,4,6,8,10,12,14,16,18,-1,20,22,24,26,28,-1,30,32,34,-1,36,38,40,42,44,46,48,50,52,-1,-1,-1,-1,-1,-1,-1,-1,-1,-1,-1,-1,-1,-1,-1,-1,-1,-1,-1,-1,-1,-1,-1,-1],"split_conditions":[-5E-1,1.5E0,5E-1,5E-1,5E-1,-5E-1,2.5E0,-5E-1,5E-1,-0E0,-1.5E0,1.5E0,3.5E0,-5E-1,5E-1,-0E0,-5E-1,-1.5E0,-5E-1,-0E0,-1.5E0,5E-1,5E-1,5E-1,2.5E0,-5E-1,1.5E0,2.5E0,1.6E1,-0E0,-9.524795E-1,-0E0,-1.0539807E-1,-0E0,4.1161385E-1,-0E0,-1.2907367E0,-0E0,2.039868E-1,-0E0,-6.838315E-1,2.781319E-1,1.4593108E0,8.6738986E-1,7.570162E-2,-0E0,4.8676795E-1,3.6783168E-1,-6.6343844E-1,1.2025535E0,2.5705886E-1,-2.900996E-1,9.5993064E-2],"split_indices":[11,14,19,8,29,12,3,13,3,0,16,21,20,20,15,0,18,14,7,0,15,8,15,2,13,10,29,21,12,0,0,0,0,0,0,0,0,0,0,0,0,0,0,0,0,0,0,0,0,0,0,0,0],"split_type":[0,0,0,0,0,0,0,0,0,0,0,0,0,0,0,0,0,0,0,0,0,0,0,0,0,0,0,0,0,0,0,0,0,0,0,0,0,0,0,0,0,0,0,0,0,0,0,0,0,0,0,0,0],"sum_hessian":[1.500212E6,1.21446E5,1.378766E6,3.9469E4,8.1977E4,2.32184E5,1.146582E6,1.1712E4,2.7757E4,3.45E3,7.8527E4,3.3092E4,1.99092E5,2.69891E5,8.76691E5,1.683E3,1.0029E4,8.495E3,1.9262E4,4.054E3,7.4473E4,1.3526E4,1.9566E4,9.3555E4,1.05537E5,3.5025E4,2.34866E5,1.04744E5,7.71947E5,1.6E3,8.429E3,1.102E3,7.393E3,2.844E3,1.6418E4,2.974E3,7.1499E4,4.102E3,9.424E3,5.97E3,1.3596E4,2.7424E4,6.6131E4,3.4891E4,7.0646E4,4.614E3,3.0411E4,1.7324E4,2.17542E5,3.9244E4,6.55E4,2.03535E5,5.68412E5],"tree_param":{"num_deleted":"0","num_feature":"30","num_nodes":"53","size_leaf_vector":"0"}},{"base_weights":[3.2140294E-3,1.5225097E0,-3.5164398E-1,-2.2047853E-1,2.2325337E0,-2.0114481E0,3.2767918E-2,-1.2982719E0,1.2872561E0,3.485475E0,9.779331E-1,-4.0862865E0,-1.248736E0,2.314762E0,-1.1287756E-1,-0E0,-2.8243687E0,-0E0,1.9867147E0,-0E0,4.0790977E0,-0E0,1.8494366E0,-0E0,-4.7627172E0,1.3020023E0,-1.7155564E0,-0E0,2.715171E0,-1.5748376E0,1.2920937E-1,1.4204049E0,-0E0,-0E0,-3.839715E0,2.2742722E0,-0E0,-0E0,2.6014465E-1,-0E0,4.3941875E0,8.87297E-1,-1.2897996E0,-0E0,2.3241453E0,-0E0,-5.0480523E0,-0E0,2.9003928E0,-3.1192465E0,-7.2831196E-1,-0E0,2.9280121E0,1.0658221E-1,-2.1768987E0,1.461489E0,-1.1352937E-1],"categories":[],"categories_nodes":[],"categories_segments":[],"categories_sizes":[],"default_left":[1,1,1,1,1,1,1,1,1,1,1,1,1,1,1,1,1,0,1,1,1,1,1,0,1,1,1,0,1,1,1,0,0,0,0,0,0,0,0,0,0,0,0,0,0,0,0,0,0,0,0,0,0,0,0,0,0],"id":15,"left_children":[1,3,5,7,9,11,13,15,17,19,21,23,25,27,29,31,33,-1,35,37,39,41,43,-1,45,47,49,-1,51,53,55,-1,-1,-1,-1,-1,-1,-1,-1,-1,-1,-1,-1,-1,-1,-1,-1,-1,-1,-1,-1,-1,-1,-1,-1,-1,-1],"loss_changes":[8.27528E5,3.942433E5,8.0214844E5,1.2721253E5,2.6570662E5,2.864853E5,3.5848388E5,1.43114E5,4.4328836E4,1.9141862E5,1.0480156E5,1.4612225E5,2.1785019E5,8.5181625E4,3.4438578E5,1.9808307E4,7.74287E4,0E0,2.4453219E4,5.8715045E2,1.549375E5,6.0272945E4,6.1010797E4,0E0,7.5026E4,6.6891234E4,1.5365984E5,0E0,5.2068344E4,1.7313238E5,2.703752E5,0E0,0E0,0E0,0E0,0E0,0E0,0E0,0E0,0E0,0E0,0E0,0E0,0E0,0E0,0E0,0E0,0E0,0E0,0E0,0E0,0E0,0E0,0E0,0E0,0E0,0E0],"parents":[2147483647,0,0,1,1,2,2,3,3,4,4,5,5,6,6,7,7,8,8,9,9,10,10,11,11,12,12,13,13,14,14,15,15,16,16,18,18,19,19,20,20,21,21,22,22,24,24,25,25,26,26,28,28,29,29,30,30],"right_children":[2,4,6,8,10,12,14,16,18,20,22,24,26,28,30,32,34,-1,36,38,40,42,44,-1,46,48,50,-1,52,54,56,-1,-1,-1,-1,-1,-1,-1,-1,-1,-1,-1,-1,-1,-1,-1,-1,-1,-1,-1,-1,-1,-1,-1,-1,-1,-1],"split_conditions":[5E-1,5E-1,1.5E0,1.6E1,3.5E0,5E-1,-5E-1,1.5E0,-5E-1,-5E-1,3.5E0,-5E-1,-5E-1,-5E-1,1.5E0,1.5E0,5E-1,-0E0,2.5E1,1.5E0,-1.5E0,5.5E0,5E-1,-0E0,-1.5E0,1.5E0,2.5E0,-0E0,-1.5E0,5E-1,2.5E0,4.261215E-1,-0E0,-0E0,-1.1519146E0,6.822817E-1,-0E0,-0E0,7.80434E-2,-0E0,1.3182563E0,2.661891E-1,-3.8693988E-1,-0E0,6.9724363E-1,-0E0,-1.5144157E0,-0E0,8.7011784E-1,-9.3577397E-1,-2.184936E-1,-0E0,8.7840366E-1,3.1974666E-2,-6.530696E-1,4.384467E-1,-3.4058813E-2],"split_indices":[16,8,5,11,21,2,13,20,4,3,12,19,18,6,7,21,13,0,3,12,10,18,5,0,17,4,8,0,10,14,15,0,0,0,0,0,0,0,0,0,0,0,0,0,0,0,0,0,0,0,0,0,0,0,0,0,0],"split_type":[0,0,0,0,0,0,0,0,0,0,0,0,0,0,0,0,0,0,0,0,0,0,0,0,0,0,0,0,0,0,0,0,0,0,0,0,0,0,0,0,0,0,0,0,0,0,0,0,0,0,0,0,0,0,0,0,0],"sum_hessian":[1.500212E6,2.92581E5,1.207631E6,7.8173E4,2.14408E5,2.3491E5,9.72721E5,5.1767E4,2.6406E4,1.00901E5,1.13507E5,5.7509E4,1.77401E5,6.494E4,9.07781E5,2.2889E4,2.8878E4,4.09E3,2.2316E4,1.5727E4,8.5174E4,5.1131E4,6.2376E4,8.734E3,4.8775E4,2.2148E4,1.55253E5,6.187E3,5.8753E4,1.38342E5,7.69439E5,9.817E3,1.3072E4,8.002E3,2.0876E4,2.1757E4,5.59E2,7.052E3,8.675E3,3.753E3,8.1421E4,2.829E4,2.2841E4,1.1584E4,5.0792E4,2.414E3,4.6361E4,9.734E3,1.2414E4,5.7421E4,9.7832E4,2.158E3,5.6595E4,2.9477E4,1.08865E5,1.2873E5,6.40709E5],"tree_param":{"num_deleted":"0","num_feature":"30","num_nodes":"57","size_leaf_vector":"0"}},{"base_weights":[-0E0,-2.3704584E0,2.2029923E-1,-0E0,-3.1151285E0,2.5723264E0,-0E0,1.1911657E0,-1.052244E0,-4.776519E0,-1.641359E0,1.7806599E-1,3.2516608E0,-2.1572752E0,1.844114E-1,-0E0,1.9523766E0,-2.6471918E0,-0E0,-0E0,-5.0981574E0,-0E0,-2.3916357E0,2.1223345E0,-2.223861E-1,-0E0,3.4665542E0,-0E0,-2.6912386E0,1.3320262E0,-1.8149632E-1,3.4070375E0,-0E0,-0E0,-2.966025E0,-0E0,-5.3757777E0,-0E0,-2.699058E0,-0E0,3.1944165E0,-0E0,-1.2280558E0,-0E0,3.6773932E0,-0E0,4.452083E-1,-4.481029E0,-1.1733229E0,-8.381595E-1,1.733998E0,-1.5448799E0,1.343282E-1],"categories":[],"categories_nodes":[],"categories_segments":[],"categories_sizes":[],"default_left":[1,1,1,1,1,1,1,1,1,1,1,1,1,1,1,0,1,1,0,0,1,0,1,1,1,0,1,1,1,1,1,0,0,0,0,0,0,0,0,0,0,0,0,0,0,0,0,0,0,0,0,0,0],"id":16,"left_children":[1,3,5,7,9,11,13,15,17,19,21,23,25,27,29,-1,31,33,-1,-1,35,-1,37,39,41,-1,43,45,47,49,51,-1,-1,-1,-1,-1,-1,-1,-1,-1,-1,-1,-1,-1,-1,-1,-1,-1,-1,-1,-1,-1,-1],"loss_changes":[7.747352E5,1.8566912E5,6.9128225E5,4.0865867E4,1.2293025E5,1.3150931E5,4.8520028E5,1.9124385E4,3.854144E4,7.1563E4,6.712847E4,5.412462E4,8.64585E4,1.3715594E5,5.071344E5,0E0,2.0675652E4,1.2093836E4,0E0,0E0,5.2554188E4,0E0,4.0017656E4,2.9364816E4,1.7039648E4,0E0,8.531306E4,1.8548533E3,1.2823225E5,2.6899497E5,3.9799988E5,0E0,0E0,0E0,0E0,0E0,0E0,0E0,0E0,0E0,0E0,0E0,0E0,0E0,0E0,0E0,0E0,0E0,0E0,0E0,0E0,0E0,0E0],"parents":[2147483647,0,0,1,1,2,2,3,3,4,4,5,5,6,6,7,7,8,8,9,9,10,10,11,11,12,12,13,13,14,14,16,16,17,17,20,20,22,22,23,23,24,24,26,26,27,27,28,28,29,29,30,30],"right_children":[2,4,6,8,10,12,14,16,18,20,22,24,26,28,30,-1,32,34,-1,-1,36,-1,38,40,42,-1,44,46,48,50,52,-1,-1,-1,-1,-1,-1,-1,-1,-1,-1,-1,-1,-1,-1,-1,-1,-1,-1,-1,-1,-1,-1],"split_conditions":[-5E-1,5E-1,-5E-1,5E-1,2.5E0,5E-1,-5E-1,-5E-1,1.5E0,-1.5E0,1.5E0,1.5E0,-1.5E0,-5E-1,2.5E0,-0E0,2.5E0,-1.5E0,-0E0,-0E0,5E-1,-0E0,1.5E0,5E-1,1.5E0,-0E0,-1.5E0,1.5E0,2.5E0,-5E-1,2.5E0,1.0221113E0,-0E0,-0E0,-8.898076E-1,-0E0,-1.6127334E0,-0E0,-8.097175E-1,-0E0,9.5832497E-1,-0E0,-3.6841676E-1,-0E0,1.103218E0,-0E0,1.335625E-1,-1.3443087E0,-3.519969E-1,-2.5144786E-1,5.201994E-1,-4.63464E-1,4.0298462E-2],"split_indices":[10,21,22,20,7,1,6,9,1,24,15,13,11,16,13,0,24,15,0,0,29,0,29,8,14,0,6,11,8,12,1,0,0,0,0,0,0,0,0,0,0,0,0,0,0,0,0,0,0,0,0,0,0],"split_type":[0,0,0,0,0,0,0,0,0,0,0,0,0,0,0,0,0,0,0,0,0,0,0,0,0,0,0,0,0,0,0,0,0,0,0,0,0,0,0,0,0,0,0,0,0,0,0,0,0,0,0,0,0],"sum_hessian":[1.500212E6,1.26006E5,1.374206E6,3.391E4,9.2096E4,1.14551E5,1.259655E6,1.0645E4,2.3265E4,3.8194E4,5.3902E4,3.0518E4,8.4033E4,9.5752E4,1.163903E6,1.666E3,8.979E3,9.175E3,1.409E4,1.914E3,3.628E4,1.6779E4,3.7123E4,1.2027E4,1.8491E4,2.901E3,8.1132E4,1.529E4,8.0462E4,2.91942E5,8.71961E5,4.729E3,4.25E3,4.92E2,8.683E3,1.832E3,3.4448E4,2.482E3,3.4641E4,3.841E3,8.186E3,6.587E3,1.1904E4,2.728E3,7.8404E4,5.933E3,9.357E3,3.2092E4,4.837E4,3.9411E4,2.52531E5,1.73514E5,6.98447E5],"tree_param":{"num_deleted":"0","num_feature":"30","num_nodes":"53","size_leaf_vector":"0"}},{"base_weights":[-0E0,3.8455176E0,-1.3161595E-1,3.9247117E0,-0E0,-2.3022172E0,8.5057E-2,-0E0,4.031207E0,-3.5567825E0,-8.999141E-1,2.4856775E0,-1.1015211E-1,-0E0,4.164471E0,-0E0,-4.043662E0,-0E0,-2.3493328E0,-0E0,3.234314E0,-2.4041219E0,6.092768E-2,4.217455E0,-0E0,-0E0,-6.588384E-2,-0E0,-4.305724E0,-2.8241745E-1,8.838517E-1,-0E0,-3.0677438E0,1.2017351E0,-2.2931546E-1,-0E0,3.5660148E0,-4.302674E0,-1.2726557E0,2.2840981E0,-1.0098045E-1],"categories":[],"categories_nodes":[],"categories_segments":[],"categories_sizes":[],"default_left":[1,1,1,1,0,1,1,0,1,1,1,1,1,0,1,1,1,1,1,1,1,1,1,0,0,0,0,0,0,0,0,0,0,0,0,0,0,0,0,0,0],"id":17,"left_children":[1,3,5,7,-1,9,11,-1,13,15,17,19,21,-1,23,25,27,29,31,33,35,37,39,-1,-1,-1,-1,-1,-1,-1,-1,-1,-1,-1,-1,-1,-1,-1,-1,-1,-1],"loss_changes":[7.233413E5,2.2813812E4,7.187941E5,1.6988562E4,0E0,1.7256106E5,6.539359E5,0E0,1.52249375E4,7.464081E4,1.2391211E5,1.50789E5,5.1208903E5,0E0,1.41826875E4,3.001146E1,6.6925625E4,1.7478156E4,6.2131484E4,2.1285146E4,1.2365531E5,1.0513241E5,4.3767528E5,0E0,0E0,0E0,0E0,0E0,0E0,0E0,0E0,0E0,0E0,0E0,0E0,0E0,0E0,0E0,0E0,0E0,0E0],"parents":[2147483647,0,0,1,1,2,2,3,3,5,5,6,6,8,8,9,9,10,10,11,11,12,12,14,14,15,15,16,16,17,17,18,18,19,19,20,20,21,21,22,22],"right_children":[2,4,6,8,-1,10,12,-1,14,16,18,20,22,-1,24,26,28,30,32,34,36,38,40,-1,-1,-1,-1,-1,-1,-1,-1,-1,-1,-1,-1,-1,-1,-1,-1,-1,-1],"split_conditions":[5E-1,2.5E1,-5E-1,-5E-1,-0E0,3.5E0,-5E-1,-0E0,-5E-1,-5E-1,4.5E0,5E-1,-5E-1,-0E0,2.5E1,5E-1,-1.5E0,3.5E0,5E-1,2.5E0,-1.5E0,1.5E0,-5E-1,1.2652365E0,-0E0,-0E0,-1.9765152E-2,-0E0,-1.2917173E0,-8.472524E-2,2.6515552E-1,-0E0,-9.203232E-1,3.6052054E-1,-6.879464E-2,-0E0,1.0698044E0,-1.2908022E0,-3.8179675E-1,6.852295E-1,-3.0294137E-2],"split_indices":[29,2,4,27,0,9,18,0,0,15,24,3,8,0,1,24,20,6,17,15,8,2,14,0,0,0,0,0,0,0,0,0,0,0,0,0,0,0,0,0,0],"split_type":[0,0,0,0,0,0,0,0,0,0,0,0,0,0,0,0,0,0,0,0,0,0,0,0,0,0,0,0,0,0,0,0,0,0,0,0,0,0,0,0,0],"sum_hessian":[1.500212E6,4.7211E4,1.453001E6,4.6806E4,4.05E2,1.3857E5,1.314431E6,1.395E3,4.5411E4,6.7122E4,7.1448E4,1.05002E5,1.209429E6,1.982E3,4.3429E4,1.0626E4,5.6496E4,3.8515E4,3.2933E4,2.8569E4,7.6433E4,9.0419E4,1.11901E6,4.3142E4,2.87E2,3.713E3,6.913E3,3.058E3,5.3438E4,1.7978E4,2.0537E4,7.017E3,2.5916E4,1.4215E4,1.4354E4,3.834E3,7.2599E4,2.8489E4,6.193E4,8.2662E4,1.036348E6],"tree_param":{"num_deleted":"0","num_feature":"30","num_nodes":"41","size_leaf_vector":"0"}},{"base_weights":[-3.8853574E-3,1.3804685E0,-3.15512E-1,-0E0,2.3545349E0,-2.6778831E0,-1.0706134E-1,1.1945512E0,-9.067727E-1,4.5572505E0,1.5096152E0,-0E0,-3.1584916E0,3.551087E0,-2.1430215E-1,-0E0,1.7109543E0,-0E0,-2.2441819E0,-0E0,5.131251E0,2.9563475E0,3.50024E-1,-0E0,7.2245836E-2,-0E0,-3.4755285E0,-0E0,4.420114E0,-1.0612934E0,2.2064906E-1,-3.9277115E-1,-0E0,-0E0,2.0903E0,-3.2207307E-1,8.3466923E-1,-0E0,-3.1893446E0,-0E0,5.3298726E0,3.2706149E0,-0E0,1.3133357E0,-0E0,-0E0,4.9811277E-1,-0E0,-3.8600109E0,-0E0,5.0270476E0,1.0671539E0,-1.4079323E0,-7.1043336E-1,5.903893E-1],"categories":[],"categories_nodes":[],"categories_segments":[],"categories_sizes":[],"default_left":[1,1,1,1,1,1,1,1,1,1,1,1,1,1,1,1,1,1,1,0,1,1,1,0,1,0,1,0,1,1,1,0,0,0,0,0,0,0,0,0,0,0,0,0,0,0,0,0,0,0,0,0,0,0,0],"id":18,"left_children":[1,3,5,7,9,11,13,15,17,19,21,23,25,27,29,31,33,35,37,-1,39,41,43,-1,45,-1,47,-1,49,51,53,-1,-1,-1,-1,-1,-1,-1,-1,-1,-1,-1,-1,-1,-1,-1,-1,-1,-1,-1,-1,-1,-1,-1,-1],"loss_changes":[6.301759E5,3.4578234E5,5.6315325E5,1.2318325E5,1.8944788E5,1.4029431E5,3.9395797E5,4.9850805E4,1.0783988E5,7.5319375E4,1.4255475E5,3.2360653E1,9.446756E4,6.278403E4,4.2306394E5,9.728214E2,3.8643047E4,1.5679643E4,5.383297E4,0E0,2.3497062E4,8.031581E4,3.1649605E4,0E0,1.4563374E3,0E0,7.476856E4,0E0,4.9227E4,2.9299053E5,2.4670148E5,0E0,0E0,0E0,0E0,0E0,0E0,0E0,0E0,0E0,0E0,0E0,0E0,0E0,0E0,0E0,0E0,0E0,0E0,0E0,0E0,0E0,0E0,0E0,0E0],"parents":[2147483647,0,0,1,1,2,2,3,3,4,4,5,5,6,6,7,7,8,8,9,9,10,10,11,11,12,12,13,13,14,14,15,15,16,16,17,17,18,18,20,20,21,21,22,22,24,24,26,26,28,28,29,29,30,30],"right_children":[2,4,6,8,10,12,14,16,18,20,22,24,26,28,30,32,34,36,38,-1,40,42,44,-1,46,-1,48,-1,50,52,54,-1,-1,-1,-1,-1,-1,-1,-1,-1,-1,-1,-1,-1,-1,-1,-1,-1,-1,-1,-1,-1,-1,-1,-1],"split_conditions":[5E-1,2.5E0,-5E-1,1.5E0,5E-1,-5E-1,-1.5E0,-5E-1,2.5E0,-5E-1,3.5E0,2.5E0,1.5E0,5E-1,1.6E1,6.5E0,1.5E0,5E-1,1.5E0,-0E0,-5E-1,2.5E1,2.5E0,-0E0,-1.5E0,-0E0,-5E-1,-0E0,-5E-1,-5E-1,1.5E0,-1.1783135E-1,-0E0,-0E0,6.2709004E-1,-9.662192E-2,2.5040078E-1,-0E0,-9.5680344E-1,-0E0,1.5989618E0,9.811845E-1,-0E0,3.940007E-1,-0E0,-0E0,1.4943384E-1,-0E0,-1.1580033E0,-0E0,1.5081143E0,3.201462E-1,-4.223797E-1,-2.1313001E-1,1.771168E-1],"split_indices":[21,6,2,16,17,17,17,7,15,9,20,12,29,3,5,11,0,9,24,0,27,2,22,0,11,0,22,0,4,20,28,0,0,0,0,0,0,0,0,0,0,0,0,0,0,0,0,0,0,0,0,0,0,0,0],"split_type":[0,0,0,0,0,0,0,0,0,0,0,0,0,0,0,0,0,0,0,0,0,0,0,0,0,0,0,0,0,0,0,0,0,0,0,0,0,0,0,0,0,0,0,0,0,0,0,0,0,0,0,0,0,0,0],"sum_hessian":[1.500212E6,2.66232E5,1.23398E6,1.12343E5,1.53889E5,9.3838E4,1.140142E6,5.0947E4,6.1396E4,3.7419E4,1.1647E5,1.2322E4,8.1516E4,2.8227E4,1.111915E6,9.084E3,4.1863E4,2.9961E4,3.1435E4,5.043E3,3.2376E4,4.5687E4,7.0783E4,6.123E3,6.199E3,6.373E3,7.5143E4,6.795E3,2.1432E4,3.89728E5,7.22187E5,6.305E3,2.779E3,4.972E3,3.6891E4,8.76E3,2.1201E4,1.0579E4,2.0856E4,1.541E3,3.0835E4,4.4837E4,8.5E2,2.3376E4,4.7407E4,2E2,5.999E3,9.206E3,6.5937E4,2.915E3,1.8517E4,4.8125E4,3.41603E5,1.92986E5,5.29201E5],"tree_param":{"num_deleted":"0","num_feature":"30","num_nodes":"55","size_leaf_vector":"0"}},{"base_weights":[-0E0,-1.9070501E0,2.0299365E-1,-0E0,-2.1638174E0,-2.1198673E0,3.7907097E-1,-3.7444668E0,-1.4871061E0,-0E0,-2.3680327E0,1.4552956E0,-0E0,-0E0,-3.9290056E0,-0E0,-1.6717935E0,-2.4954455E0,-0E0,1.9739386E-1,2.0518224E0,2.8215036E-1,-1.2083426E0,-4.0315404E0,-0E0,-0E0,-1.8645419E0,-2.60635E0,-0E0,-1.9085424E0,7.1190614E-1,3.643737E0,1.489018E0,-2.3737061E-1,7.527605E-1,-0E0,-1.6489122E0],"categories":[],"categories_nodes":[],"categories_segments":[],"categories_sizes":[],"default_left":[1,1,1,0,1,1,1,1,1,0,1,1,1,0,1,0,1,1,0,1,1,1,1,0,0,0,0,0,0,0,0,0,0,0,0,0,0],"id":19,"left_children":[1,3,5,-1,7,9,11,13,15,-1,17,19,21,-1,23,-1,25,27,-1,29,31,33,35,-1,-1,-1,-1,-1,-1,-1,-1,-1,-1,-1,-1,-1,-1],"loss_changes":[5.933754E5,7.219094E4,5.253093E5,0E0,5.5710312E4,5.636603E4,5.251671E5,2.3375781E4,3.1042578E4,0E0,4.4457625E4,2.144495E5,3.2317775E5,0E0,2.0513344E4,0E0,3.0083266E4,3.9615844E4,0E0,1.06524445E5,1.130455E5,1.9143642E5,1.0551441E5,0E0,0E0,0E0,0E0,0E0,0E0,0E0,0E0,0E0,0E0,0E0,0E0,0E0,0E0],"parents":[2147483647,0,0,1,1,2,2,4,4,5,5,6,6,7,7,8,8,10,10,11,11,12,12,14,14,16,16,17,17,19,19,20,20,21,21,22,22],"right_children":[2,4,6,-1,8,10,12,14,16,-1,18,20,22,-1,24,-1,26,28,-1,30,32,34,36,-1,-1,-1,-1,-1,-1,-1,-1,-1,-1,-1,-1,-1,-1],"split_conditions":[1.5E0,-5E-1,5E-1,-0E0,1.5E0,1.5E0,2.5E0,-1.5E0,-5E-1,-0E0,2.5E1,1.5E0,1.6E1,-0E0,2.5E1,-0E0,-5E-1,2.5E1,-0E0,-5E-1,5E-1,1.6E1,1.5E0,-1.2094622E0,-0E0,-0E0,-5.593626E-1,-7.81905E-1,-0E0,-5.7256275E-1,2.1357185E-1,1.0931212E0,4.467054E-1,-7.121119E-2,2.2582817E-1,-0E0,-4.9467367E-1],"split_indices":[27,24,0,0,9,29,23,17,22,0,16,9,29,0,16,0,23,14,0,6,18,2,18,0,0,0,0,0,0,0,0,0,0,0,0,0,0],"split_type":[0,0,0,0,0,0,0,0,0,0,0,0,0,0,0,0,0,0,0,0,0,0,0,0,0,0,0,0,0,0,0,0,0,0,0,0,0],"sum_hessian":[1.500212E6,1.47833E5,1.352379E6,1.7585E4,1.30248E5,8.8894E4,1.263485E6,3.1965E4,9.8283E4,7.604E3,8.129E4,3.33692E5,9.29793E5,1.418E3,3.0547E4,9.409E3,8.8874E4,8.034E4,9.5E2,1.15959E5,2.17733E5,7.49308E5,1.80485E5,3.0275E4,2.72E2,8.772E3,8.0102E4,7.948E4,8.6E2,1.6669E4,9.929E4,4.9453E4,1.6828E5,3.40007E5,4.09301E5,4.4755E4,1.3573E5],"tree_param":{"num_deleted":"0","num_feature":"30","num_nodes":"37","size_leaf_vector":"0"}},{"base_weights":[-0E0,-3.525025E0,9.925761E-2,-0E0,-4.0762224E0,4.9923245E-2,9.263341E0,-0E0,-4.3050594E0,1.3229537E0,-1.962917E-1,-0E0,9.806518E0,-0E0,-4.466732E0,3.834225E0,8.6031604E-1,-1.012135E0,2.5870872E-1,-0E0,1.0128834E1,-0E0,-4.6258216E0,-0E0,4.287851E0,2.3009746E0,2.7112594E-1,3.256215E-1,-1.5192505E0,1.3116682E0,-7.779563E-2],"categories":[],"categories_nodes":[],"categories_segments":[],"categories_sizes":[],"default_left":[1,1,1,0,1,1,1,0,1,1,1,0,1,0,1,1,1,1,1,0,0,0,0,0,0,0,0,0,0,0,0],"id":20,"left_children":[1,3,5,-1,7,9,11,-1,13,15,17,-1,19,-1,21,23,25,27,29,-1,-1,-1,-1,-1,-1,-1,-1,-1,-1,-1,-1],"loss_changes":[5.447799E5,8.573569E4,5.101214E5,0E0,3.7299562E4,4.7294884E5,2.9696938E4,0E0,3.046875E4,2.104869E5,4.5961138E5,0E0,2.622375E3,0E0,1.7509562E4,3.3483156E4,1.3960366E5,3.2045747E5,2.8952144E5,0E0,0E0,0E0,0E0,0E0,0E0,0E0,0E0,0E0,0E0,0E0,0E0],"parents":[2147483647,0,0,1,1,2,2,4,4,5,5,6,6,8,8,9,9,10,10,12,12,14,14,15,15,16,16,17,17,18,18],"right_children":[2,4,6,-1,8,10,12,-1,14,16,18,-1,20,-1,22,24,26,28,30,-1,-1,-1,-1,-1,-1,-1,-1,-1,-1,-1,-1],"split_conditions":[-1.5E0,-5E-1,2.5E1,-0E0,-1.5E0,5E-1,-1.5E0,-0E0,-5E-1,-5E-1,1.05E1,-0E0,-1.5E0,-0E0,-1.5E0,-5E-1,5E-1,5E-1,9.5E0,-0E0,3.0386503E0,-0E0,-1.3877466E0,-0E0,1.2863553E0,6.902924E-1,8.133779E-2,9.768645E-2,-4.5577517E-1,3.9350048E-1,-2.333869E-2],"split_indices":[5,21,14,0,16,14,4,0,29,20,8,0,9,0,24,12,19,18,17,0,0,0,0,0,0,0,0,0,0,0,0],"split_type":[0,0,0,0,0,0,0,0,0,0,0,0,0,0,0,0,0,0,0,0,0,0,0,0,0,0,0,0,0,0,0],"sum_hessian":[1.500212E6,4.2686E4,1.457526E6,5.604E3,3.7082E4,1.451457E6,6.069E3,1.825E3,3.5257E4,2.45747E5,1.20571E6,3.45E2,5.724E3,9.79E2,3.4278E4,3.2855E4,2.12892E5,4.44255E5,7.61455E5,3.33E2,5.391E3,1.499E3,3.2779E4,4.763E3,2.8092E4,5.3921E4,1.58971E5,1.13454E5,3.30801E5,1.95912E5,5.65543E5],"tree_param":{"num_deleted":"0","num_feature":"30","num_nodes":"31","size_leaf_vector":"0"}},{"base_weights":[-0E0,-3.2359097E0,1.04448855E-1,-0E0,-3.4889562E0,1.5177375E-1,-8.79276E0,-0E0,-3.8517513E0,1.8508847E0,-1.8987283E-2,-0E0,-9.353999E0,-0E0,-4.074472E0,2.79151E0,6.819741E-1,-6.688718E-2,8.351965E0,-0E0,-9.775512E0,-0E0,-4.2456603E0,-0E0,3.0410864E0,-0E0,1.1702993E0,-1.8536792E0,8.2455985E-2,-0E0,8.758386E0,-9.88624E0,-0E0],"categories":[],"categories_nodes":[],"categories_segments":[],"categories_sizes":[],"default_left":[1,1,1,0,1,1,1,0,1,1,1,0,1,0,1,1,1,1,1,0,1,0,0,0,0,0,0,0,0,0,0,0,0],"id":21,"left_children":[1,3,5,-1,7,9,11,-1,13,15,17,-1,19,-1,21,23,25,27,29,-1,31,-1,-1,-1,-1,-1,-1,-1,-1,-1,-1,-1,-1],"loss_changes":[4.669294E5,5.5697312E4,4.7545512E5,0E0,4.257253E4,4.5033425E5,3.0574781E4,0E0,4.0525812E4,9.960247E4,3.929248E5,0E0,1.3195844E4,0E0,3.38585E4,7.0126625E4,4.1064836E4,3.7642875E5,1.5700375E4,0E0,4.5881875E3,0E0,0E0,0E0,0E0,0E0,0E0,0E0,0E0,0E0,0E0,0E0,0E0],"parents":[2147483647,0,0,1,1,2,2,4,4,5,5,6,6,8,8,9,9,10,10,12,12,14,14,15,15,16,16,17,17,18,18,20,20],"right_children":[2,4,6,-1,8,10,12,-1,14,16,18,-1,20,-1,22,24,26,28,30,-1,32,-1,-1,-1,-1,-1,-1,-1,-1,-1,-1,-1,-1],"split_conditions":[-1.5E0,-1.5E0,2.5E1,-0E0,-5E-1,-5E-1,-1.5E0,-0E0,-1.5E0,3.5E0,2.5E1,-0E0,-1.5E0,-0E0,-5E-1,-1.5E0,5E-1,-5E-1,-1.5E0,-0E0,2.5E1,-0E0,-1.2736981E0,-0E0,9.12326E-1,-0E0,3.510898E-1,-5.5610377E-1,2.4736797E-2,-0E0,2.6275158E0,-2.965872E0,-0E0],"split_indices":[10,18,2,0,23,24,16,0,21,20,16,0,21,0,29,8,5,1,3,0,14,0,0,0,0,0,0,0,0,0,0,0,0],"split_type":[0,0,0,0,0,0,0,0,0,0,0,0,0,0,0,0,0,0,0,0,0,0,0,0,0,0,0,0,0,0,0,0,0],"sum_hessian":[1.500212E6,4.3073E4,1.457139E6,1.446E3,4.1627E4,1.451217E6,5.922E3,4.603E3,3.7024E4,1.41074E5,1.310143E6,3.4E2,5.582E3,1.496E3,3.5528E4,7.0594E4,7.048E4,1.304588E6,5.555E3,3.33E2,5.249E3,9.29E2,3.4599E4,3.529E3,6.7065E4,1.6564E4,5.3916E4,1.08882E5,1.195706E6,2.99E2,5.256E3,5.179E3,7E1],"tree_param":{"num_deleted":"0","num_feature":"30","num_nodes":"33","size_leaf_vector":"0"}},{"base_weights":[-0E0,-1.6101791E0,1.7764442E-1,-2.4934242E0,-5.214545E-1,2.2377741E-1,-8.550556E0,-0E0,-2.9203188E0,-0E0,-1.2750754E0,1.1607361E0,-9.89757E-2,-0E0,-9.064221E0,-0E0,-3.1506019E0,-4.7899085E-1,4.9044618E-1,-0E0,-2.1659667E0,-6.579599E-2,1.6634301E0,-1.1092141E0,2.19825E-1,-9.232775E0,-0E0,-0E0,-3.4022305E0,-0E0,-7.368146E-1,-0E0,9.443387E-1,-0E0,-2.420423E0,2.4739134E0,-5.7329E-1,6.3352876E0,1.3945597E0,-0E0,-1.531405E0,1.2588009E0,-3.3935052E-3,-0E0,-9.5831E0],"categories":[],"categories_nodes":[],"categories_segments":[],"categories_sizes":[],"default_left":[1,1,1,1,1,1,1,0,1,1,1,1,1,0,1,0,1,1,1,0,1,1,1,1,1,1,0,0,0,0,0,0,0,0,0,0,0,0,0,0,0,0,0,0,0],"id":22,"left_children":[1,3,5,7,9,11,13,-1,15,17,19,21,23,-1,25,-1,27,29,31,-1,33,35,37,39,41,43,-1,-1,-1,-1,-1,-1,-1,-1,-1,-1,-1,-1,-1,-1,-1,-1,-1,-1,-1],"loss_changes":[4.158138E5,9.016678E4,4.1307675E5,8.164194E4,3.939354E4,4.25529E5,2.3479531E4,0E0,5.4353625E4,8.598107E3,6.4644543E4,2.4677956E5,3.3376528E5,0E0,8.464E3,0E0,5.4988E4,2.0647527E3,1.4598864E4,0E0,1.7072953E4,9.216912E4,2.0778194E5,1.3509672E5,1.9218602E5,4.8478125E3,0E0,0E0,0E0,0E0,0E0,0E0,0E0,0E0,0E0,0E0,0E0,0E0,0E0,0E0,0E0,0E0,0E0,0E0,0E0],"parents":[2147483647,0,0,1,1,2,2,3,3,4,4,5,5,6,6,8,8,9,9,10,10,11,11,12,12,14,14,16,16,17,17,18,18,20,20,21,21,22,22,23,23,24,24,25,25],"right_children":[2,4,6,8,10,12,14,-1,16,18,20,22,24,-1,26,-1,28,30,32,-1,34,36,38,40,42,44,-1,-1,-1,-1,-1,-1,-1,-1,-1,-1,-1,-1,-1,-1,-1,-1,-1,-1,-1],"split_conditions":[-5E-1,3.5E0,2.5E1,-5E-1,4.5E0,2.5E0,-1.5E0,-0E0,-1.5E0,5E-1,2.5E0,5E-1,3.5E0,-0E0,2.5E1,-0E0,-1.5E0,-5E-1,-5E-1,-0E0,2.5E0,-1.5E0,-1.5E0,5E-1,4.5E0,-1.5E0,-0E0,-0E0,-1.0206692E0,-0E0,-2.2104439E-1,-0E0,2.8330162E-1,-0E0,-7.261269E-1,7.42174E-1,-1.71987E-1,1.9005864E0,4.1836795E-1,-0E0,-4.5942152E-1,3.7764028E-1,-1.0180516E-3,-0E0,-2.8749301E0],"split_indices":[12,8,4,13,15,20,15,0,20,3,22,6,4,0,13,0,15,19,7,0,29,20,18,15,22,20,0,0,0,0,0,0,0,0,0,0,0,0,0,0,0,0,0,0,0],"split_type":[0,0,0,0,0,0,0,0,0,0,0,0,0,0,0,0,0,0,0,0,0,0,0,0,0,0,0,0,0,0,0,0,0,0,0,0,0,0,0,0,0,0,0,0,0],"sum_hessian":[1.500212E6,1.4387E5,1.356342E6,7.1326E4,7.2544E4,1.351033E6,5.309E3,9.756E3,6.157E4,3.6182E4,3.6362E4,3.58836E5,9.92197E5,2.99E2,5.01E3,3.196E3,5.8374E4,9.499E3,2.6683E4,9.982E3,2.638E4,9.5074E4,2.63762E5,2.50025E5,7.42172E5,4.928E3,8.2E1,3.565E3,5.4809E4,1.682E3,7.817E3,3.116E3,2.3567E4,2.341E3,2.4039E4,1.0589E4,8.4485E4,1.1118E4,2.52644E5,6.125E4,1.88775E5,1.43913E5,5.98259E5,3.01E2,4.627E3],"tree_param":{"num_deleted":"0","num_feature":"30","num_nodes":"45","size_leaf_vector":"0"}},{"base_weights":[-0E0,-9.531952E-1,2.8782132E-1,1.3259806E-1,-1.8707258E0,1.1646957E0,-1.7893139E-1,-7.747038E-1,1.049647E0,5.988276E-2,-2.1425202E0,2.4891925E0,6.260505E-1,2.5523013E-1,-5.3298026E-1,-1.6375808E0,-0E0,-0E0,2.1868174E0,-0E0,5.107888E-1,-3.4527626E0,-1.2501948E0,-0E0,2.9009733E0,-2.015147E-2,1.4446682E0,-5.519743E-1,1.307308E0,6.139781E-1,-9.50928E-1,-2.301834E0,-0E0,-1.948726E-1,3.1046438E-1,1.3332189E0,-4.9764886E-1,-0E0,2.8034096E0,-0E0,5.942504E-1,-3.6845024E0,-0E0,-0E0,-1.5255467E0,-0E0,3.094326E0,1.0168042E0,-7.3073727E-1,-0E0,1.9653869E0,2.4829836E-1,-1.0351739E0,-0E0,1.51703E0,-1.5716706E-1,1.1784132E0,4.7370753E-1,-1.3335991E0],"categories":[],"categories_nodes":[],"categories_segments":[],"categories_sizes":[],"default_left":[1,1,1,1,1,1,1,1,1,1,1,1,1,1,1,1,1,1,1,0,1,1,1,0,1,1,1,1,1,1,1,0,0,0,0,0,0,0,0,0,0,0,0,0,0,0,0,0,0,0,0,0,0,0,0,0,0,0,0],"id":23,"left_children":[1,3,5,7,9,11,13,15,17,19,21,23,25,27,29,31,33,35,37,-1,39,41,43,-1,45,47,49,51,53,55,57,-1,-1,-1,-1,-1,-1,-1,-1,-1,-1,-1,-1,-1,-1,-1,-1,-1,-1,-1,-1,-1,-1,-1,-1,-1,-1,-1,-1],"loss_changes":[4.0900778E5,3.712992E5,4.8863878E5,1.2915987E5,1.3553388E5,2.4504769E5,1.1851638E5,4.8819586E4,1.1557808E5,2.863224E3,1.3303669E5,1.2436269E5,1.8271195E5,2.7795297E5,2.1106312E5,3.887567E4,2.329752E3,2.0363986E4,4.860933E4,0E0,8.903987E2,8.70675E4,5.5817875E4,0E0,6.961131E4,1.1190023E5,1.0194153E5,7.775692E4,6.3789875E4,6.1752973E4,1.9074766E5,0E0,0E0,0E0,0E0,0E0,0E0,0E0,0E0,0E0,0E0,0E0,0E0,0E0,0E0,0E0,0E0,0E0,0E0,0E0,0E0,0E0,0E0,0E0,0E0,0E0,0E0,0E0,0E0],"parents":[2147483647,0,0,1,1,2,2,3,3,4,4,5,5,6,6,7,7,8,8,9,9,10,10,11,11,12,12,13,13,14,14,15,15,16,16,17,17,18,18,20,20,21,21,22,22,24,24,25,25,26,26,27,27,28,28,29,29,30,30],"right_children":[2,4,6,8,10,12,14,16,18,20,22,24,26,28,30,32,34,36,38,-1,40,42,44,-1,46,48,50,52,54,56,58,-1,-1,-1,-1,-1,-1,-1,-1,-1,-1,-1,-1,-1,-1,-1,-1,-1,-1,-1,-1,-1,-1,-1,-1,-1,-1,-1,-1],"split_conditions":[1.5E0,2.5E0,9.5E0,1.5E0,1.5E0,5E-1,1.6E1,2.5E0,2.5E0,1.5E0,2.5E0,-5E-1,1.6E1,7.5E0,1.6E1,5.5E0,2.5E0,-5E-1,5E-1,-0E0,-1.5E0,2.5E1,-5E-1,-0E0,-1.5E0,1.5E0,2.5E0,2.5E0,5.5E0,3.5E0,1.15E1,-6.9055027E-1,-0E0,-5.846178E-2,9.313932E-2,3.999657E-1,-1.4929466E-1,-0E0,8.410229E-1,-0E0,1.7827512E-1,-1.1053507E0,-0E0,-0E0,-4.57664E-1,-0E0,9.282978E-1,3.0504128E-1,-2.1922119E-1,-0E0,5.8961606E-1,7.448951E-2,-3.1055218E-1,-0E0,4.5510903E-1,-4.715012E-2,3.5352397E-1,1.4211227E-1,-4.0007976E-1],"split_indices":[9,18,17,4,29,16,3,1,3,5,8,11,12,3,24,12,6,16,2,0,7,14,20,0,10,19,7,19,18,8,23,0,0,0,0,0,0,0,0,0,0,0,0,0,0,0,0,0,0,0,0,0,0,0,0,0,0,0,0],"split_type":[0,0,0,0,0,0,0,0,0,0,0,0,0,0,0,0,0,0,0,0,0,0,0,0,0,0,0,0,0,0,0,0,0,0,0,0,0,0,0,0,0,0,0,0,0,0,0,0,0,0,0,0,0,0,0,0,0,0,0],"sum_hessian":[1.500212E6,3.44815E5,1.155397E6,1.4995E5,1.94865E5,4.13258E5,7.42139E5,6.6616E4,8.3334E4,1.6792E4,1.78073E5,1.10897E5,3.02361E5,3.1308E5,4.29059E5,3.3113E4,3.3503E4,3.9967E4,4.3367E4,5.588E3,1.1204E4,6.4886E4,1.13187E5,1.4471E4,9.6426E4,1.58066E5,1.44295E5,1.68562E5,1.44518E5,1.04379E5,3.2468E5,2.4096E4,9.017E3,1.5402E4,1.8101E4,6.84E3,3.3127E4,1.0794E4,3.2573E4,4.05E2,1.0799E4,6.3394E4,1.492E3,1.3188E4,9.9999E4,4.404E3,9.2022E4,5.5128E4,1.02938E5,3.9941E4,1.04354E5,5.1009E4,1.17553E5,9.478E3,1.3504E5,3.2147E4,7.2232E4,5.9904E4,2.64776E5],"tree_param":{"num_deleted":"0","num_feature":"30","num_nodes":"59","size_leaf_vector":"0"}},{"base_weights":[-0E0,2.7995622E0,-7.7843465E-2,-0E0,3.7776287E0,-1.7009437E0,6.7295395E-2,8.575553E-1,-0E0,-0E0,4.1568475E0,-2.502289E0,-5.0603336E-1,1.6704125E0,-6.810565E-2,-0E0,1.4354502E0,-0E0,4.3636107E0,-0E0,-2.6889856E0,-0E0,-1.0634788E0,-0E0,2.045774E0,-1.1518713E0,1.306393E-1,-0E0,1.5890024E0,-0E0,4.5646987E0,-2.8080976E0,-0E0,-0E0,1.7930314E-1,-0E0,-1.6276615E0,-0E0,-8.1836945E-1,3.2983067E0,9.261838E-1,-0E0,-1.6923542E0,9.672462E-1,-9.4114356E-2],"categories":[],"categories_nodes":[],"categories_segments":[],"categories_sizes":[],"default_left":[1,1,1,1,1,1,1,1,0,0,1,1,1,1,1,0,1,0,1,0,1,1,1,1,1,1,1,0,0,0,0,0,0,0,0,0,0,0,0,0,0,0,0,0,0],"id":24,"left_children":[1,3,5,7,9,11,13,15,-1,-1,17,19,21,23,25,-1,27,-1,29,-1,31,33,35,37,39,41,43,-1,-1,-1,-1,-1,-1,-1,-1,-1,-1,-1,-1,-1,-1,-1,-1,-1,-1],"loss_changes":[3.5932272E5,6.4025844E4,3.6898456E5,7.102504E3,3.6549438E4,7.497281E4,3.1364703E5,6.7998057E3,0E0,0E0,2.7881562E4,4.1506344E4,3.089248E4,9.643919E4,2.7790347E5,0E0,2.0931123E3,0E0,2.6887219E4,0E0,3.823647E4,4.4784415E2,2.1793941E4,6.097209E3,7.001956E4,1.411354E5,2.0457672E5,0E0,0E0,0E0,0E0,0E0,0E0,0E0,0E0,0E0,0E0,0E0,0E0,0E0,0E0,0E0,0E0,0E0,0E0],"parents":[2147483647,0,0,1,1,2,2,3,3,4,4,5,5,6,6,7,7,10,10,11,11,12,12,13,13,14,14,16,16,18,18,20,20,21,21,22,22,23,23,24,24,25,25,26,26],"right_children":[2,4,6,8,10,12,14,16,-1,-1,18,20,22,24,26,-1,28,-1,30,-1,32,34,36,38,40,42,44,-1,-1,-1,-1,-1,-1,-1,-1,-1,-1,-1,-1,-1,-1,-1,-1,-1,-1],"split_conditions":[-1.5E0,1.5E0,-5E-1,4.5E0,-5E-1,3.5E0,-5E-1,5E-1,-0E0,-0E0,-1.5E0,5E-1,1.5E0,-5E-1,5E-1,-0E0,-1.5E0,-0E0,-1.5E0,-0E0,2.5E1,5E-1,2.5E0,1.5E0,2.5E0,5E-1,2.5E0,-0E0,4.7670072E-1,-0E0,1.3694097E0,-8.4242934E-1,-0E0,-0E0,5.3790946E-2,-0E0,-4.8829845E-1,-0E0,-2.4551085E-1,9.8949206E-1,2.7785516E-1,-0E0,-5.077063E-1,2.9017386E-1,-2.8234309E-2],"split_indices":[22,12,3,21,11,12,19,11,0,0,9,29,23,8,4,0,8,0,2,0,14,5,15,14,21,24,15,0,0,0,0,0,0,0,0,0,0,0,0,0,0,0,0,0,0],"split_type":[0,0,0,0,0,0,0,0,0,0,0,0,0,0,0,0,0,0,0,0,0,0,0,0,0,0,0,0,0,0,0,0,0,0,0,0,0,0,0,0,0,0,0,0,0],"sum_hessian":[1.500212E6,4.472E4,1.455492E6,1.5673E4,2.9047E4,1.28505E5,1.326987E6,9.657E3,6.016E3,2.943E3,2.6104E4,6.8914E4,5.9591E4,1.12541E5,1.214446E6,2.911E3,6.746E3,9.51E2,2.5153E4,3.497E3,6.5417E4,1.8785E4,4.0806E4,1.4467E4,9.8074E4,2.00657E5,1.013789E6,4.12E2,6.334E3,8.77E2,2.4276E4,6.4834E4,5.83E2,4.856E3,1.3929E4,1.516E4,2.5646E4,5.364E3,9.103E3,3.9551E4,5.8523E4,5.8423E4,1.42234E5,2.29736E5,7.84053E5],"tree_param":{"num_deleted":"0","num_feature":"30","num_nodes":"45","size_leaf_vector":"0"}},{"base_weights":[3.8096443E-4,-1.5246621E0,1.5961589E-1,-0E0,-1.8648942E0,1.6746379E0,-0E0,-0E0,6.971571E-1,-3.077501E0,-7.980382E-1,1.1460027E-1,2.3143592E0,-1.583938E0,1.2813209E-1,-0E0,-5.439391E-2,-0E0,1.2310122E0,-0E0,-3.504955E0,-0E0,-1.2719642E0,-6.692064E-1,1.1108446E0,-0E0,2.4481387E0,-0E0,-1.9434217E0,3.1589222E0,3.8041998E-2,-0E0,-3.960289E-1,1.467022E0,-0E0,-0E0,-3.9992065E0,-0E0,2.933726E-1,-0E0,-1.533485E0,-0E0,-1.1113267E0,2.1057072E0,-0E0,2.5333135E0,-0E0,-0E0,4.6420532E-1,-0E0,-2.2907043E0,-0E0,3.3588445E0,1.5962447E0,-7.65299E-2],"categories":[],"categories_nodes":[],"categories_segments":[],"categories_sizes":[],"default_left":[1,1,1,1,1,1,1,1,1,1,1,1,1,1,1,0,1,0,1,0,1,1,1,1,1,0,1,1,1,1,1,0,0,0,0,0,0,0,0,0,0,0,0,0,0,0,0,0,0,0,0,0,0,0,0],"id":25,"left_children":[1,3,5,7,9,11,13,15,17,19,21,23,25,27,29,-1,31,-1,33,-1,35,37,39,41,43,-1,45,47,49,51,53,-1,-1,-1,-1,-1,-1,-1,-1,-1,-1,-1,-1,-1,-1,-1,-1,-1,-1,-1,-1,-1,-1,-1,-1],"loss_changes":[3.4249778E5,9.130384E4,3.3376806E5,5.4877417E3,8.6465375E4,9.2361E4,2.535347E5,1.6195911E1,6.9490728E3,3.906728E4,3.57011E4,4.2580656E4,3.2622625E4,7.578305E4,2.6095931E5,0E0,7.2376996E2,0E0,4.872957E3,0E0,4.5915594E4,1.0365968E3,3.1363922E4,9.326015E3,4.0002875E4,0E0,3.052475E4,1.7247546E3,6.565244E4,2.2664906E4,2.2333992E5,0E0,0E0,0E0,0E0,0E0,0E0,0E0,0E0,0E0,0E0,0E0,0E0,0E0,0E0,0E0,0E0,0E0,0E0,0E0,0E0,0E0,0E0,0E0,0E0],"parents":[2147483647,0,0,1,1,2,2,3,3,4,4,5,5,6,6,7,7,8,8,9,9,10,10,11,11,12,12,13,13,14,14,16,16,18,18,20,20,21,21,22,22,23,23,24,24,26,26,27,27,28,28,29,29,30,30],"right_children":[2,4,6,8,10,12,14,16,18,20,22,24,26,28,30,-1,32,-1,34,-1,36,38,40,42,44,-1,46,48,50,52,54,-1,-1,-1,-1,-1,-1,-1,-1,-1,-1,-1,-1,-1,-1,-1,-1,-1,-1,-1,-1,-1,-1,-1,-1],"split_conditions":[-5E-1,-5E-1,-5E-1,1.5E0,2.5E0,1.5E0,-5E-1,-5E-1,5E-1,-5E-1,1.5E0,1.5E0,-5E-1,-5E-1,-1.5E0,-0E0,-5E-1,-0E0,2.5E1,-0E0,-5E-1,1.5E0,-1.5E0,-5E-1,3.5E0,-0E0,2.5E1,5E-1,-5E-1,-1.5E0,-5E-1,-0E0,-1.1880868E-1,4.401066E-1,-0E0,-0E0,-1.199762E0,-0E0,8.801179E-2,-0E0,-4.6004555E-1,-0E0,-3.33398E-1,6.317122E-1,-0E0,7.599941E-1,-0E0,-0E0,1.392616E-1,-0E0,-6.872113E-1,-0E0,1.0076534E0,4.7887343E-1,-2.295897E-2],"split_indices":[7,20,16,2,9,5,2,22,10,19,18,1,27,17,23,0,13,0,2,0,18,10,21,17,24,0,1,5,20,4,13,0,0,0,0,0,0,0,0,0,0,0,0,0,0,0,0,0,0,0,0,0,0,0,0],"split_type":[0,0,0,0,0,0,0,0,0,0,0,0,0,0,0,0,0,0,0,0,0,0,0,0,0,0,0,0,0,0,0,0,0,0,0,0,0,0,0,0,0,0,0,0,0,0,0,0,0,0,0,0,0,0,0],"sum_hessian":[1.500212E6,1.32344E5,1.367868E6,1.7632E4,1.14712E5,1.31441E5,1.236427E6,6.342E3,1.129E4,4.6677E4,6.8035E4,4.549E4,8.5951E4,9.3576E4,1.142851E6,8.69E2,5.473E3,3.084E3,8.206E3,7.511E3,3.9166E4,1.9188E4,4.8847E4,1.6482E4,2.9008E4,3.694E3,8.2257E4,1.1352E4,8.2224E4,2.7869E4,1.114982E6,7.56E2,4.717E3,8.042E3,1.64E2,6.212E3,3.2954E4,7.145E3,1.2043E4,1.903E3,4.6944E4,2.955E3,1.3527E4,1.7094E4,1.1914E4,8.1575E4,6.82E2,3.349E3,8.003E3,1.053E4,7.1694E4,1.21E3,2.6659E4,8.592E4,1.029062E6],"tree_param":{"num_deleted":"0","num_feature":"30","num_nodes":"55","size_leaf_vector":"0"}},{"base_weights":[-0E0,-1.5834765E0,1.509785E-1,-0E0,-2.141668E0,1.0685925E0,-9.645256E-2,-3.109808E-1,3.5777938E-1,-0E0,-2.4338083E0,-0E0,1.5131816E0,-1.4278318E-1,7.082701E0,-0E0,-1.211911E0,-0E0,8.679E-1,-0E0,-2.7753112E0,-1.0385399E0,4.0407518E-1,-0E0,1.962308E0,-8.1922996E-1,1.2016223E-1,7.306659E0,-0E0,-2.0023732E0,-0E0,1.5613708E0,-0E0,-4.155514E-1,-0E0,-3.0036783E-1,-3.3959668E0,-0E0,-1.6445544E0,-0E0,9.884996E-1,-7.791073E-1,5.249536E-1,-0E0,2.1853766E0,-1.814034E0,-3.4898913E-1,1.1973718E0,-2.584637E-2,7.4673624E0,-0E0],"categories":[],"categories_nodes":[],"categories_segments":[],"categories_sizes":[],"default_left":[1,1,1,1,1,1,1,1,1,0,1,1,1,1,1,0,1,0,1,1,1,1,1,1,1,1,1,1,0,0,0,0,0,0,0,0,0,0,0,0,0,0,0,0,0,0,0,0,0,0,0],"id":26,"left_children":[1,3,5,7,9,11,13,15,17,-1,19,21,23,25,27,-1,29,-1,31,33,35,37,39,41,43,45,47,49,-1,-1,-1,-1,-1,-1,-1,-1,-1,-1,-1,-1,-1,-1,-1,-1,-1,-1,-1,-1,-1,-1,-1],"loss_changes":[3.4557212E5,1.0479884E5,3.2769956E5,3.648776E3,9.347541E4,1.6309881E5,2.447207E5,2.031096E4,6.4058657E3,0E0,6.061022E4,4.19095E4,1.3407106E5,2.00519E5,1.1388875E4,0E0,1.6901734E4,0E0,8.976059E3,9.9776215E2,5.5226188E4,1.3193207E4,2.6005268E4,2.0522156E4,8.0046875E4,1.1278247E5,1.3661244E5,6.963547E3,0E0,0E0,0E0,0E0,0E0,0E0,0E0,0E0,0E0,0E0,0E0,0E0,0E0,0E0,0E0,0E0,0E0,0E0,0E0,0E0,0E0,0E0,0E0],"parents":[2147483647,0,0,1,1,2,2,3,3,4,4,5,5,6,6,7,7,8,8,10,10,11,11,12,12,13,13,14,14,16,16,18,18,19,19,20,20,21,21,22,22,23,23,24,24,25,25,26,26,27,27],"right_children":[2,4,6,8,10,12,14,16,18,-1,20,22,24,26,28,-1,30,-1,32,34,36,38,40,42,44,46,48,50,-1,-1,-1,-1,-1,-1,-1,-1,-1,-1,-1,-1,-1,-1,-1,-1,-1,-1,-1,-1,-1,-1,-1],"split_conditions":[-5E-1,5E-1,1.5E0,8.5E0,5E-1,5E-1,2.5E1,5E-1,-5E-1,-0E0,-5E-1,1.5E0,5E-1,5.5E0,2.5E1,-0E0,1.6E1,-0E0,1.6E1,2.5E0,5E-1,1.5E0,5E-1,5E-1,5E-1,1.5E0,1.5E0,2.5E1,-0E0,-6.00712E-1,-0E0,4.6841127E-1,-0E0,-1.24665424E-1,-0E0,-9.0110354E-2,-1.0187901E0,-0E0,-4.9336633E-1,-0E0,2.965499E-1,-2.337322E-1,1.5748608E-1,-0E0,6.55613E-1,-5.442102E-1,-1.0469674E-1,3.5921156E-1,-7.753911E-3,2.2402089E0,-0E0],"split_indices":[6,14,21,7,29,1,13,19,1,0,15,5,8,11,2,0,19,0,13,3,18,24,12,2,27,2,17,3,0,0,0,0,0,0,0,0,0,0,0,0,0,0,0,0,0,0,0,0,0,0,0],"split_type":[0,0,0,0,0,0,0,0,0,0,0,0,0,0,0,0,0,0,0,0,0,0,0,0,0,0,0,0,0,0,0,0,0,0,0,0,0,0,0,0,0,0,0,0,0,0,0,0,0,0,0],"sum_hessian":[1.500212E6,1.25321E5,1.374891E6,3.3965E4,9.1356E4,3.05714E5,1.069177E6,2.234E4,1.1625E4,4.835E3,8.6521E4,8.2023E4,2.23691E5,1.064534E6,4.643E3,7.041E3,1.5299E4,1.146E3,1.0479E4,1.2114E4,7.4407E4,3.1155E4,5.0868E4,5.586E4,1.67831E5,3.14985E5,7.49549E5,4.576E3,6.7E1,9.819E3,5.48E3,6.919E3,3.56E3,5.777E3,6.337E3,2.0081E4,5.4326E4,1.3853E4,1.7302E4,1.5755E4,3.5113E4,1.5471E4,4.0389E4,1.5753E4,1.52078E5,9.0193E4,2.24792E5,1.02533E5,6.47016E5,4.506E3,7E1],"tree_param":{"num_deleted":"0","num_feature":"30","num_nodes":"51","size_leaf_vector":"0"}},{"base_weights":[-0E0,-8.433825E-1,2.4264699E-1,-1.6146713E0,-1.5238775E-1,2.906373E-1,-6.421381E0,-0E0,-1.9624327E0,8.953064E-1,-5.829326E-1,1.1227391E0,-0E0,-0E0,-6.801991E0,-0E0,-2.247023E0,1.8721293E0,-0E0,-1.6373166E0,-0E0,2.0243497E0,2.2127706E-1,1.4754369E0,-7.237538E-2,-6.884291E0,-0E0,-0E0,-2.4159002E0,-0E0,2.431994E0,-0E0,-5.180517E-3,-0E0,-2.0614336E0,6.856224E-1,-3.8285425E-1,4.8322588E-1,2.5984774E0,1.042692E0,-1.7279378E-1,-0E0,2.0490527E0,-8.0503106E-1,1.04476124E-1,-0E0,-6.9450903E0],"categories":[],"categories_nodes":[],"categories_segments":[],"categories_sizes":[],"default_left":[1,1,1,1,1,1,1,0,1,1,1,1,1,0,1,0,1,1,1,1,1,1,1,1,1,1,0,0,0,0,0,0,0,0,0,0,0,0,0,0,0,0,0,0,0,0,0],"id":27,"left_children":[1,3,5,7,9,11,13,-1,15,17,19,21,23,-1,25,-1,27,29,31,33,35,37,39,41,43,45,-1,-1,-1,-1,-1,-1,-1,-1,-1,-1,-1,-1,-1,-1,-1,-1,-1,-1,-1,-1,-1],"loss_changes":[3.093807E5,1.5233727E5,2.734525E5,8.960506E4,8.055216E4,2.6499494E5,1.40793125E4,0E0,5.3304094E4,5.7914797E4,6.973982E4,1.9790716E5,1.1072122E5,0E0,2.5919375E3,0E0,5.0664438E4,4.2103664E4,2.5785717E-1,4.4910266E4,2.2850078E4,7.0155875E4,6.333072E4,5.685692E4,1.1730535E5,2.0722344E3,0E0,0E0,0E0,0E0,0E0,0E0,0E0,0E0,0E0,0E0,0E0,0E0,0E0,0E0,0E0,0E0,0E0,0E0,0E0,0E0,0E0],"parents":[2147483647,0,0,1,1,2,2,3,3,4,4,5,5,6,6,8,8,9,9,10,10,11,11,12,12,14,14,16,16,17,17,18,18,19,19,20,20,21,21,22,22,23,23,24,24,25,25],"right_children":[2,4,6,8,10,12,14,-1,16,18,20,22,24,-1,26,-1,28,30,32,34,36,38,40,42,44,46,-1,-1,-1,-1,-1,-1,-1,-1,-1,-1,-1,-1,-1,-1,-1,-1,-1,-1,-1,-1,-1],"split_conditions":[1.5E0,2.5E0,2.5E1,2.5E0,5E-1,2.5E0,-1.5E0,-0E0,-5E-1,5.5E0,1.5E0,3.5E0,-5E-1,-0E0,2.5E1,-0E0,-1.5E0,-5E-1,4.5E0,-5E-1,5E-1,1.5E0,5.5E0,5E-1,4.5E0,-1.5E0,-0E0,-0E0,-7.2477007E-1,-0E0,7.295982E-1,-0E0,-1.5541553E-3,-0E0,-6.184301E-1,2.0568673E-1,-1.1485628E-1,1.4496776E-1,7.795432E-1,3.128076E-1,-5.1838133E-2,-0E0,6.147158E-1,-2.4150933E-1,3.1342838E-2,-0E0,-2.083527E0],"split_indices":[10,7,2,29,20,13,16,0,14,18,1,16,18,0,14,0,20,11,14,19,13,11,19,5,9,29,0,0,0,0,0,0,0,0,0,0,0,0,0,0,0,0,0,0,0,0,0],"split_type":[0,0,0,0,0,0,0,0,0,0,0,0,0,0,0,0,0,0,0,0,0,0,0,0,0,0,0,0,0,0,0,0,0,0,0,0,0,0,0,0,0,0,0,0,0,0,0],"sum_hessian":[1.500212E6,3.38819E5,1.161393E6,1.49178E5,1.89641E5,1.155471E6,5.922E3,2.492E4,1.24258E5,4.4423E4,1.45218E5,2.87651E5,8.6782E5,3.4E2,5.582E3,1.8925E4,1.05333E5,2.6683E4,1.774E4,4.4421E4,1.00797E5,1.3495E5,1.52701E5,4.889E4,8.1893E5,5.504E3,7.8E1,5.531E3,9.9802E4,3.753E3,2.293E4,8.133E3,9.607E3,5.83E3,3.8591E4,2.4961E4,7.5836E4,4.4184E4,9.0766E4,6.2654E4,9.0047E4,1E4,3.889E4,1.76809E5,6.42121E5,5.3E1,5.451E3],"tree_param":{"num_deleted":"0","num_feature":"30","num_nodes":"47","size_leaf_vector":"0"}},{"base_weights":[-0E0,-2.2869682E0,8.584126E-2,-0E0,-2.3992217E0,1.88074E0,-5.060022E-3,-2.4652555E0,-0E0,-0E0,2.1158054E0,-1.3459631E0,1.1776692E-1,-0E0,-2.562926E0,2.171794E0,-0E0,-2.429116E0,-6.8667203E-1,1.496867E0,-0E0,-0E0,-2.6566083E0,2.2239618E0,-0E0,-0E0,-2.7217E0,-1.1706392E0,-0E0,-0E0,2.1351764E0,-8.5955477E-1,1.9165178E-1],"categories":[],"categories_nodes":[],"categories_segments":[],"categories_sizes":[],"default_left":[1,1,1,0,1,1,1,1,0,0,1,1,1,0,1,1,0,1,1,1,1,0,0,0,0,0,0,0,0,0,0,0,0],"id":28,"left_children":[1,3,5,-1,7,9,11,13,-1,-1,15,17,19,-1,21,23,-1,25,27,29,31,-1,-1,-1,-1,-1,-1,-1,-1,-1,-1,-1,-1],"loss_changes":[3.0101188E5,1.4652375E4,2.656894E5,0E0,1.2967469E4,2.0402281E4,2.447028E5,1.2315375E4,0E0,0E0,1.4132281E4,3.9893516E4,2.2427266E5,0E0,1.06495625E4,1.2970594E4,0E0,3.467442E4,1.5844809E4,7.6085266E4,1.9681877E5,0E0,0E0,0E0,0E0,0E0,0E0,0E0,0E0,0E0,0E0,0E0,0E0],"parents":[2147483647,0,0,1,1,2,2,4,4,5,5,6,6,7,7,10,10,11,11,12,12,14,14,15,15,17,17,18,18,19,19,20,20],"right_children":[2,4,6,-1,8,10,12,14,-1,-1,16,18,20,-1,22,24,-1,26,28,30,32,-1,-1,-1,-1,-1,-1,-1,-1,-1,-1,-1,-1],"split_conditions":[-5E-1,1.5E0,1.5E0,-0E0,5E-1,1.5E0,1.5E0,-1.5E0,-0E0,-0E0,2.5E1,-5E-1,-5E-1,-0E0,-1.5E0,2.5E1,-0E0,5E-1,6.5E0,1.5E0,1.5E0,-0E0,-7.969825E-1,6.671886E-1,-0E0,-0E0,-8.1651E-1,-3.5119176E-1,-0E0,-0E0,6.4055294E-1,-2.5786644E-1,5.7495534E-2],"split_indices":[27,29,29,0,26,0,0,21,0,0,3,0,15,0,24,1,0,25,11,1,8,0,0,0,0,0,0,0,0,0,0,0,0],"split_type":[0,0,0,0,0,0,0,0,0,0,0,0,0,0,0,0,0,0,0,0,0,0,0,0,0,0,0,0,0,0,0,0,0],"sum_hessian":[1.500212E6,5.5516E4,1.444696E6,2.528E3,5.2988E4,7.8112E4,1.366584E6,5.2321E4,6.67E2,1.1835E4,6.6277E4,1.25592E5,1.240992E6,2.037E3,5.0284E4,6.59E4,3.77E2,3.8348E4,8.7244E4,1.07775E5,1.133217E6,1.975E3,4.8309E4,6.5467E4,4.33E2,3.121E3,3.5227E4,4.158E4,4.5664E4,3.8118E4,6.9657E4,2.21042E5,9.12175E5],"tree_param":{"num_deleted":"0","num_feature":"30","num_nodes":"33","size_leaf_vector":"0"}},{"base_weights":[-0E0,-3.0951004E-2,6.4657683E0,-0E0,-7.066394E0,-0E0,6.8647575E0,2.3220599E0,-7.684786E-2,-0E0,-7.313033E0,6.957042E0,-0E0,-0E0,2.7428951E0,-1.4101408E0,3.479943E-2,-7.4144406E0,-0E0,-0E0,7.4873E0,-0E0,2.9527776E0,-0E0,-1.6794753E0,1.4074869E0,-7.323916E-2,-7.51525E0,-0E0,-0E0,7.7324877E0],"categories":[],"categories_nodes":[],"categories_segments":[],"categories_sizes":[],"default_left":[1,1,1,1,1,0,1,1,1,0,1,1,0,0,1,1,1,1,0,0,1,0,0,0,0,0,0,0,0,0,0],"id":29,"left_children":[1,3,5,7,9,-1,11,13,15,-1,17,19,-1,-1,21,23,25,27,-1,-1,29,-1,-1,-1,-1,-1,-1,-1,-1,-1,-1],"loss_changes":[2.691577E5,2.5368138E5,1.6954844E4,2.4290203E5,7.5301094E3,0E0,3.8819062E3,5.086289E4,2.3711481E5,0E0,3.7611875E3,1.825625E3,0E0,0E0,2.9958156E4,6.0315453E4,2.174545E5,2.7751562E3,0E0,0E0,2.7680312E3,0E0,0E0,0E0,0E0,0E0,0E0,0E0,0E0,0E0,0E0],"parents":[2147483647,0,0,1,1,2,2,3,3,4,4,6,6,7,7,8,8,10,10,11,11,14,14,15,15,16,16,17,17,20,20],"right_children":[2,4,6,8,10,-1,12,14,16,-1,18,20,-1,-1,22,24,26,28,-1,-1,30,-1,-1,-1,-1,-1,-1,-1,-1,-1,-1],"split_conditions":[2.5E1,2.5E1,-1.5E0,-1.5E0,-1.5E0,-0E0,2.5E1,-5E-1,-5E-1,-0E0,2.5E1,-5E-1,-0E0,-0E0,-1.5E0,-5E-1,-5E-1,2.5E1,-0E0,-0E0,-1.5E0,-0E0,8.858333E-1,-0E0,-5.038426E-1,4.222461E-1,-2.197175E-2,-2.2545753E0,-0E0,-0E0,2.3197465E0],"split_indices":[14,1,4,17,22,0,2,9,5,0,15,11,0,0,4,22,14,13,0,0,9,0,0,0,0,0,0,0,0,0,0],"split_type":[0,0,0,0,0,0,0,0,0,0,0,0,0,0,0,0,0,0,0,0,0,0,0,0,0,0,0,0,0,0,0],"sum_hessian":[1.500212E6,1.493809E6,6.403E3,1.488701E6,5.108E3,3.63E2,6.04E3,4.3465E4,1.445236E6,1.98E2,4.91E3,5.961E3,7.9E1,5.554E3,3.7911E4,1.22729E5,1.322507E6,4.845E3,6.5E1,7.82E2,5.179E3,1.762E3,3.6149E4,1.4824E4,1.07905E5,1.07286E5,1.215221E6,4.765E3,8E1,2.77E2,4.902E3],"tree_param":{"num_deleted":"0","num_feature":"30","num_nodes":"31","size_leaf_vector":"0"}},{"base_weights":[-0E0,-2.6273958E-2,6.3384943E0,-2.3712206E0,2.7826954E-2,-0E0,6.6408873E0,-0E0,-2.7609253E0,6.3188836E-2,-6.1433535E0,-0E0,6.978478E0,-0E0,-3.1201906E0,6.08392E-1,-1.8245257E-1,-6.26127E0,-0E0,7.127722E0,-0E0,-0E0,-3.3101907E0,-1.421662E-3,1.137837E0,-9.829515E-1,6.612322E-2,-6.3384895E0,-0E0,7.171982E0,-0E0],"categories":[],"categories_nodes":[],"categories_segments":[],"categories_sizes":[],"default_left":[1,1,1,1,1,0,1,0,1,1,1,0,1,0,1,1,1,1,0,1,0,0,0,0,0,0,0,0,0,0,0],"id":30,"left_children":[1,3,5,7,9,-1,11,-1,13,15,17,-1,19,-1,21,23,25,27,-1,29,-1,-1,-1,-1,-1,-1,-1,-1,-1,-1,-1],"loss_changes":[2.3903719E5,2.2702033E5,8.829781E3,4.1317094E4,2.2011886E5,0E0,9.468234E3,0E0,2.6316906E4,2.0075955E5,5.527953E3,0E0,6.761625E3,0E0,2.5153875E4,1.699175E5,2.092964E5,3.3149688E3,0E0,2.299875E3,0E0,0E0,0E0,0E0,0E0,0E0,0E0,0E0,0E0,0E0,0E0],"parents":[2147483647,0,0,1,1,2,2,3,3,4,4,6,6,8,8,9,9,10,10,12,12,14,14,15,15,16,16,17,17,19,19],"right_children":[2,4,6,8,10,-1,12,-1,14,16,18,-1,20,-1,22,24,26,28,-1,30,-1,-1,-1,-1,-1,-1,-1,-1,-1,-1,-1],"split_conditions":[2.5E1,-1.5E0,-1.5E0,-5E-1,2.5E1,-0E0,-1.5E0,-0E0,-5E-1,3.5E0,2.5E1,-0E0,2.5E1,-0E0,-1.5E0,2.5E0,4.5E0,2.5E1,-0E0,2.5E1,-0E0,-0E0,-9.9305725E-1,-4.2649862E-4,3.4135112E-1,-2.9488546E-1,1.9836966E-2,-1.901547E0,-0E0,2.1515946E0,-0E0],"split_indices":[16,11,3,21,3,0,8,0,16,20,14,0,1,0,14,3,9,15,0,4,0,0,0,0,0,0,0,0,0,0,0],"split_type":[0,0,0,0,0,0,0,0,0,0,0,0,0,0,0,0,0,0,0,0,0,0,0,0,0,0,0,0,0,0,0],"sum_hessian":[1.500212E6,1.494289E6,5.923E3,4.0358E4,1.453931E6,3.27E2,5.596E3,5.169E3,3.5189E4,1.448223E6,5.708E3,3.34E2,5.262E3,4.934E3,3.0255E4,4.70034E5,9.78189E5,5.636E3,7.2E1,5.177E3,8.5E1,1.078E3,2.9177E4,2.04411E5,2.65623E5,2.47012E5,7.31177E5,5.582E3,5.4E1,5.158E3,1.9E1],"tree_param":{"num_deleted":"0","num_feature":"30","num_nodes":"31","size_leaf_vector":"0"}},{"base_weights":[-0E0,1.9179355E-2,-6.4292884E0,-0E0,5.989483E0,-0E0,-6.7704387E0,1.2917669E0,-1.2444008E-1,6.1160393E0,-0E0,-6.870643E0,-0E0,-0E0,1.6818357E0,-1.0963454E0,5.148388E-2,6.19464E0,-0E0,-6.9275074E0,-0E0,6.015203E-1,-1.3751242E-1,-0E0,1.8536516E0,-2.290866E0,-1.3841778E-1,-2.4984896E0,1.3104282E-1,-0E0,6.373311E0,-0E0,-6.9630303E0],"categories":[],"categories_nodes":[],"categories_segments":[],"categories_sizes":[],"default_left":[1,1,1,1,1,0,1,1,1,1,0,1,0,1,1,1,1,1,0,1,0,0,0,0,0,0,0,0,0,0,0,0,0],"id":31,"left_children":[1,3,5,7,9,-1,11,13,15,17,-1,19,-1,21,23,25,27,29,-1,31,-1,-1,-1,-1,-1,-1,-1,-1,-1,-1,-1,-1,-1],"loss_changes":[2.2004272E5,2.256351E5,1.0205594E4,2.2867522E5,6.9288125E3,0E0,2.9786406E3,5.7507094E4,2.4995397E5,3.3057656E3,0E0,2.9555938E3,0E0,3.9626064E3,4.4247156E4,2.1636275E5,1.9368764E5,1.5270781E3,0E0,4.8342188E2,0E0,0E0,0E0,0E0,0E0,0E0,0E0,0E0,0E0,0E0,0E0,0E0,0E0],"parents":[2147483647,0,0,1,1,2,2,3,3,4,4,6,6,7,7,8,8,9,9,11,11,13,13,14,14,15,15,16,16,17,17,19,19],"right_children":[2,4,6,8,10,-1,12,14,16,18,-1,20,-1,22,24,26,28,30,-1,32,-1,-1,-1,-1,-1,-1,-1,-1,-1,-1,-1,-1,-1],"split_conditions":[2.5E1,2.5E1,-1.5E0,-5E-1,2.5E1,-0E0,2.5E1,5E-1,5E-1,2.5E1,-0E0,2.5E1,-0E0,-1.5E0,-1.5E0,2.5E0,-1.5E0,-1.5E0,-0E0,-1.5E0,-0E0,1.804561E-1,-4.1253727E-2,-0E0,5.5609554E-1,-6.872598E-1,-4.1525334E-2,-7.495469E-1,3.9312847E-2,-0E0,1.9119934E0,-0E0,-2.0889091E0],"split_indices":[4,15,15,23,2,0,13,10,6,1,0,16,0,23,2,9,8,2,0,29,0,0,0,0,0,0,0,0,0,0,0,0,0],"split_type":[0,0,0,0,0,0,0,0,0,0,0,0,0,0,0,0,0,0,0,0,0,0,0,0,0,0,0,0,0,0,0,0,0],"sum_hessian":[1.500212E6,1.494903E6,5.309E3,1.488599E6,6.304E3,2.99E2,5.01E3,1.2438E5,1.364219E6,6.231E3,7.3E1,4.928E3,8.2E1,3.0674E4,9.3706E4,2.23011E5,1.141208E6,6.16E3,7.1E1,4.909E3,1.9E1,9.863E3,2.0811E4,3.689E3,9.0017E4,9.1824E4,1.31187E5,2.845E4,1.112758E6,3.03E2,5.857E3,4E1,4.869E3],"tree_param":{"num_deleted":"0","num_feature":"30","num_nodes":"33","size_leaf_vector":"0"}},{"base_weights":[-0E0,5.8153397E-1,-2.4039653E-1,-3.581352E-1,9.537327E-1,-8.587983E-1,2.7124954E-3,-0E0,-1.4647039E0,1.6801882E0,2.9035762E-1,-0E0,-1.287022E0,2.6451004E0,-2.6079826E-2,-8.2328725E-1,6.042715E-1,-2.2302475E0,-0E0,-0E0,2.0047138E0,7.2549444E-1,-5.0135776E-2,1.400125E0,-1.745567E-1,-0E0,-1.5081348E0,-0E0,3.0779214E0,-4.0107673E-1,2.1156263E-1,-0E0,-1.2977338E0,-0E0,1.1217145E0,-0E0,-2.6601746E0,-0E0,2.3065028E0,-0E0,1.2516176E0,-6.184484E-1,-0E0,-0E0,1.8515989E0,-9.032888E-1,2.1944283E-1,-0E0,3.9297724E-1,-2.2262576E0,-7.648864E-1,-0E0,3.2927392E0,1.7401506E-1,-1.2433867E0,-8.994096E-1,5.949706E-1],"categories":[],"categories_nodes":[],"categories_segments":[],"categories_sizes":[],"default_left":[1,1,1,1,1,1,1,1,1,1,1,1,1,1,1,1,1,1,0,0,1,1,1,1,1,1,1,0,1,1,1,0,0,0,0,0,0,0,0,0,0,0,0,0,0,0,0,0,0,0,0,0,0,0,0,0,0],"id":32,"left_children":[1,3,5,7,9,11,13,15,17,19,21,23,25,27,29,31,33,35,-1,-1,37,39,41,43,45,47,49,-1,51,53,55,-1,-1,-1,-1,-1,-1,-1,-1,-1,-1,-1,-1,-1,-1,-1,-1,-1,-1,-1,-1,-1,-1,-1,-1,-1,-1],"loss_changes":[2.0585878E5,1.5815245E5,1.753305E5,6.0423336E4,1.2107656E5,1.2730814E5,9.916264E4,3.4077977E4,2.2716898E4,8.275769E4,3.7014004E4,3.334556E4,8.102031E4,2.4633477E4,6.889948E4,1.6677719E4,2.621401E4,2.017989E4,0E0,0E0,6.1835906E4,4.5179156E4,1.2011695E4,1.5067346E4,3.5644684E4,1.9878372E3,5.6810438E4,0E0,1.4894891E4,1.6861497E5,1.7674539E5,0E0,0E0,0E0,0E0,0E0,0E0,0E0,0E0,0E0,0E0,0E0,0E0,0E0,0E0,0E0,0E0,0E0,0E0,0E0,0E0,0E0,0E0,0E0,0E0,0E0,0E0],"parents":[2147483647,0,0,1,1,2,2,3,3,4,4,5,5,6,6,7,7,8,8,9,9,10,10,11,11,12,12,13,13,14,14,15,15,16,16,17,17,20,20,21,21,22,22,23,23,24,24,25,25,26,26,28,28,29,29,30,30],"right_children":[2,4,6,8,10,12,14,16,18,20,22,24,26,28,30,32,34,36,-1,-1,38,40,42,44,46,48,50,-1,52,54,56,-1,-1,-1,-1,-1,-1,-1,-1,-1,-1,-1,-1,-1,-1,-1,-1,-1,-1,-1,-1,-1,-1,-1,-1,-1,-1],"split_conditions":[2.5E0,5E-1,4.5E0,1.15E1,1.6E1,1.5E0,-1.5E0,5E-1,1.15E1,-5E-1,1.05E1,-5E-1,-5E-1,-5E-1,1.6E1,-5E-1,5E-1,-5E-1,-0E0,-0E0,-5E-1,2.5E0,5.5E0,-5E-1,5E-1,3.5E0,3.5E0,-0E0,-1.5E0,7.5E0,1.6E1,-0E0,-3.8932016E-1,-0E0,3.3651435E-1,-0E0,-7.9805243E-1,-0E0,6.9195086E-1,-0E0,3.7548527E-1,-1.8553452E-1,-0E0,-0E0,5.554797E-1,-2.7098665E-1,6.583285E-2,-0E0,1.17893174E-1,-6.678773E-1,-2.2946592E-1,-0E0,9.8782176E-1,5.220452E-2,-3.7301603E-1,-2.698229E-1,1.7849118E-1],"split_indices":[19,2,4,23,2,18,14,8,11,8,23,16,21,9,15,21,7,18,0,0,3,1,9,12,4,6,12,0,5,15,10,0,0,0,0,0,0,0,0,0,0,0,0,0,0,0,0,0,0,0,0,0,0,0,0,0,0],"split_type":[0,0,0,0,0,0,0,0,0,0,0,0,0,0,0,0,0,0,0,0,0,0,0,0,0,0,0,0,0,0,0,0,0,0,0,0,0,0,0,0,0,0,0,0,0,0,0,0,0,0,0,0,0,0,0,0,0],"sum_hessian":[1.500212E6,4.24979E5,1.075233E6,1.08392E5,3.16587E5,3.21968E5,7.53265E5,7.3748E4,3.4644E4,1.3961E5,1.76977E5,1.01753E5,2.20215E5,1.4101E4,7.39164E5,2.2863E4,5.0885E4,1.9509E4,1.5135E4,2.095E4,1.1866E5,9.8294E4,7.8683E4,1.5671E4,8.6082E4,2.4218E4,1.95997E5,1.087E3,1.3014E4,3.12806E5,4.26358E5,3.759E3,1.9104E4,1.5285E4,3.56E4,2.945E3,1.6564E4,1.7397E4,1.01263E5,3.6429E4,6.1865E4,3.1921E4,4.6762E4,2.316E3,1.3355E4,4.4442E4,4.164E4,1.1347E4,1.2871E4,8.8747E4,1.0725E5,2.69E2,1.2745E4,1.74615E5,1.38191E5,9.8695E4,3.27663E5],"tree_param":{"num_deleted":"0","num_feature":"30","num_nodes":"57","size_leaf_vector":"0"}},{"base_weights":[-0E0,-1.1134789E0,1.15946904E-1,-0E0,-1.201159E0,8.8305837E-1,-4.721561E-2,-0E0,-1.3315722E0,-4.6008062E-1,1.1803366E0,-6.50041E-1,1.21491045E-1,-1.8686217E0,-5.120176E-1,-0E0,-1.4673926E0,-0E0,1.4161917E0,-1.4155426E0,-1.79282E-1,8.188412E-1,-1.4922744E-1,-0E0,-2.0869498E0,-9.8036087E-1,-0E0,-0E0,1.9817577E-1,-0E0,-1.9613885E0,-0E0,-9.937344E-1,2.4251673E0,7.819337E-1,-0E0,-1.7433833E0,3.231523E-1,-6.174401E-1,-0E0,1.2973236E0,2.849399E-1,-5.16699E-1],"categories":[],"categories_nodes":[],"categories_segments":[],"categories_sizes":[],"default_left":[1,1,1,0,1,1,1,0,1,1,1,1,1,1,1,1,1,1,1,1,1,1,1,0,0,0,0,0,0,0,0,0,0,0,0,0,0,0,0,0,0,0,0],"id":33,"left_children":[1,3,5,-1,7,9,11,-1,13,15,17,19,21,23,25,27,29,31,33,35,37,39,41,-1,-1,-1,-1,-1,-1,-1,-1,-1,-1,-1,-1,-1,-1,-1,-1,-1,-1,-1,-1],"loss_changes":[2.0147078E5,2.0796172E4,1.8262644E5,0E0,1.8333281E4,1.1307911E5,1.20114586E5,0E0,1.7167031E4,2.918272E4,8.019494E4,6.849991E4,1.687521E5,2.0190484E4,8.300786E3,5.5709656E2,1.2328992E4,1.3678962E4,7.125416E4,5.241742E4,4.3101367E4,1.0293056E5,9.728778E4,0E0,0E0,0E0,0E0,0E0,0E0,0E0,0E0,0E0,0E0,0E0,0E0,0E0,0E0,0E0,0E0,0E0,0E0,0E0,0E0],"parents":[2147483647,0,0,1,1,2,2,4,4,5,5,6,6,8,8,9,9,10,10,11,11,12,12,13,13,14,14,15,15,16,16,17,17,18,18,19,19,20,20,21,21,22,22],"right_children":[2,4,6,-1,8,10,12,-1,14,16,18,20,22,24,26,28,30,32,34,36,38,40,42,-1,-1,-1,-1,-1,-1,-1,-1,-1,-1,-1,-1,-1,-1,-1,-1,-1,-1,-1,-1],"split_conditions":[1.5E0,-1.5E0,5E-1,-0E0,-5E-1,-5E-1,2.5E0,-0E0,1.6E1,3.5E0,-5E-1,1.5E0,1.6E1,-5E-1,1.6E1,5E-1,5E-1,2.5E0,1.5E0,-5E-1,1.6E1,2.5E0,1.6E1,-0E0,-6.26085E-1,-2.9410827E-1,-0E0,-0E0,5.9452735E-2,-0E0,-5.884166E-1,-0E0,-2.9812035E-1,7.275502E-1,2.3458013E-1,-0E0,-5.23015E-1,9.6945696E-2,-1.8523204E-1,-0E0,3.8919708E-1,8.548197E-2,-1.5500972E-1],"split_indices":[27,16,24,0,21,12,10,0,5,23,1,2,22,19,1,11,22,21,14,22,2,1,3,0,0,0,0,0,0,0,0,0,0,0,0,0,0,0,0,0,0,0,0],"split_type":[0,0,0,0,0,0,0,0,0,0,0,0,0,0,0,0,0,0,0,0,0,0,0,0,0,0,0,0,0,0,0,0,0,0,0,0,0,0,0,0,0,0,0],"sum_hessian":[1.500212E6,1.47833E5,1.352379E6,6.381E3,1.41452E5,2.54374E5,1.098005E6,1.6011E4,1.25441E5,3.6356E4,2.18018E5,2.60807E5,8.37198E5,6.4001E4,6.144E4,1.923E4,1.7126E4,2.6586E4,1.91432E5,8.6386E4,1.74421E5,2.50628E5,5.8657E5,8.055E3,5.5946E4,2.5395E4,3.6045E4,5.046E3,1.4184E4,4.336E3,1.279E4,1.2735E4,1.3851E4,6.4163E4,1.27269E5,1.2189E4,7.4197E4,6.4261E4,1.1016E5,8.9625E4,1.61003E5,2.48949E5,3.37621E5],"tree_param":{"num_deleted":"0","num_feature":"30","num_nodes":"43","size_leaf_vector":"0"}},{"base_weights":[-0E0,2.843235E0,-4.689408E-2,2.8807116E0,-0E0,-6.5802395E-1,1.2518358E-1,2.9132397E0,-0E0,4.3329036E-1,-8.9452624E-1,7.435013E-1,-7.808779E-2,2.9437046E0,-0E0,-0E0,9.1270405E-1,-1.7131367E0,-3.4952167E-1,1.6665981E0,2.904934E-1,1.0396292E0,-1.6459332E-1,